  0.100000000000000E+001  0.110588336993568E+002  0.529555726127221E+000  0.500133456784104E+001  0.365291896588976E+001
  0.100000000000000E+001  0.103633752462148E+002  0.108531287480178E+001  0.523544784549356E+001  0.377681079422540E+001
  0.100000000000000E+001  0.311057492507877E+001  0.109501585538261E+001  0.500636098298914E+001  0.416446800845888E+001
  0.100000000000000E+001 -0.236177341490427E+001  0.636880570125879E+000  0.484534151084050E+001  0.390579881759361E+001
  0.100000000000000E+001  0.322892935637958E+001  0.507759494728976E+000  0.490430638927209E+001  0.385596421591858E+001
  0.100000000000000E+001  0.400822323098812E+001  0.608801431779664E+000  0.524391209812497E+001  0.383552805164402E+001
  0.100000000000000E+001  0.559554496678165E+001  0.493687479681677E+000  0.511747049195051E+001  0.382294755954147E+001
  0.100000000000000E+001  0.487419599635511E+001  0.871536576687060E+000  0.526520347730348E+001  0.423729809812334E+001
  0.100000000000000E+001 -0.489128719535218E+001  0.868040171270046E+000  0.514793529529559E+001  0.408712981770434E+001
  0.100000000000000E+001  0.177089901437883E+001  0.804208653657808E+000  0.526795132464041E+001  0.382996424320458E+001
  0.100000000000000E+001  0.168673225851565E+001  0.106170735631039E+001  0.491937279039529E+001  0.415778031847129E+001
  0.100000000000000E+001  0.163014267092627E+001  0.604773086383952E+000  0.512892626355787E+001  0.378884912725356E+001
  0.100000000000000E+001  0.163011543614195E+001  0.787037516750722E+000  0.530792516711287E+001  0.406583322440305E+001
  0.100000000000000E+001  0.989990004216273E+000  0.993506025372145E+000  0.508805952022669E+001  0.378155176203127E+001
  0.100000000000000E+001  0.896705094676046E+000  0.729844414048891E+000  0.510477790487103E+001  0.372416376426434E+001
  0.100000000000000E+001 -0.483133853957634E+001  0.883005105319604E+000  0.491273417371006E+001  0.385787246486196E+001
  0.100000000000000E+001  0.778354330804212E+000  0.104239045472272E+001  0.483288909645855E+001  0.393578823883214E+001
  0.100000000000000E+001  0.300069175071333E+000  0.746089806506312E+000  0.492167400004729E+001  0.372255051972123E+001
  0.100000000000000E+001 -0.482060657022870E+001  0.909540400020465E+000  0.510903639408611E+001  0.410452125818765E+001
  0.100000000000000E+001  0.236729281869852E+000  0.108026791643524E+001  0.506533691488547E+001  0.405066625086146E+001
  0.100000000000000E+001  0.798968411297989E-001  0.855994971148595E+000  0.471602706206037E+001  0.400645722251918E+001
  0.100000000000000E+001  0.620794827431106E-001  0.553427184335444E+000  0.484888916229247E+001  0.400263623166188E+001
  0.100000000000000E+001 -0.204635317761631E+001  0.100199017626672E+001  0.496083912322751E+001  0.414220286998985E+001
  0.100000000000000E+001 -0.161461154003733E+000  0.745190021090213E+000  0.517865022597670E+001  0.378439817946570E+001
  0.100000000000000E+001 -0.476921298096353E+001  0.787394128006367E+000  0.483879539191740E+001  0.390418335164523E+001
  0.100000000000000E+001 -0.202983443305454E+001  0.605051660328922E+000  0.515622290566332E+001  0.401760675615829E+001
  0.100000000000000E+001 -0.191114023486218E+001  0.100971387653447E+001  0.513963617314139E+001  0.397928236552946E+001
  0.100000000000000E+001 -0.510744868536555E+000  0.774202963179702E+000  0.472264229618073E+001  0.401784830315157E+001
  0.100000000000000E+001 -0.621452016852146E+000  0.864634735012196E+000  0.517425965032402E+001  0.379442714498822E+001
  0.100000000000000E+001 -0.721279600610464E+000  0.787617264337301E+000  0.525227768529289E+001  0.389041608264884E+001
  0.100000000000000E+001 -0.730762083121671E+000  0.677085560237600E+000  0.488226547017317E+001  0.378380149459236E+001
  0.100000000000000E+001 -0.846890202751268E+000  0.550415926216871E+000  0.504683130285359E+001  0.389967796479984E+001
  0.100000000000000E+001 -0.189984870851230E+001  0.102898068274348E+001  0.490454349437471E+001  0.404976152094116E+001
  0.100000000000000E+001 -0.470177957352247E+001  0.935923643381415E+000  0.509586557987107E+001  0.409129924215481E+001
  0.100000000000000E+001 -0.113016982605957E+001  0.672800612319222E+000  0.476452112084468E+001  0.400933319731685E+001
  0.100000000000000E+001 -0.169170695810566E+001  0.100951206776158E+001  0.485133502697142E+001  0.401025393890089E+001
  0.100000000000000E+001 -0.127138913454118E+001  0.102160677717239E+001  0.495929252737293E+001  0.386022074465239E+001
  0.100000000000000E+001 -0.469277560779083E+001  0.912030960243296E+000  0.510645815906977E+001  0.388951578472970E+001
  0.100000000000000E+001 -0.131518168203953E+001  0.977319310677679E+000  0.500384515440493E+001  0.380401516993562E+001
  0.100000000000000E+001 -0.140965597730022E+001  0.706874442191385E+000  0.524530752101207E+001  0.399139276861542E+001
  0.100000000000000E+001 -0.152025550927576E+001  0.951230589840350E+000  0.480042736952326E+001  0.392847159755917E+001
  0.100000000000000E+001 -0.156742750162778E+001  0.904821385608980E+000  0.491345873590685E+001  0.422106018478970E+001
  0.100000000000000E+001 -0.163249136418090E+001  0.558643599716309E+000  0.508861284883166E+001  0.402426377978777E+001
  0.100000000000000E+001 -0.239031299507837E+001  0.704188127639338E+000  0.484119395284500E+001  0.415721446542327E+001
  0.100000000000000E+001 -0.253355980613822E+001  0.816672704389187E+000  0.499979166528732E+001  0.423959376671979E+001
  0.100000000000000E+001 -0.270048182792747E+001  0.723592049346198E+000  0.519741529114887E+001  0.410584424030423E+001
  0.100000000000000E+001 -0.276669054053695E+001  0.669554744080447E+000  0.517214486534646E+001  0.409328487940134E+001
  0.100000000000000E+001 -0.283363494556158E+001  0.620774840375379E+000  0.485434437860130E+001  0.396332267397648E+001
  0.100000000000000E+001 -0.284290733291683E+001  0.880458766704535E+000  0.510387442762602E+001  0.380680007659436E+001
  0.100000000000000E+001 -0.287151838186871E+001  0.997815540858806E+000  0.489692116172003E+001  0.393256577528980E+001
  0.100000000000000E+001 -0.289465657944061E+001  0.881007206672436E+000  0.493083077432888E+001  0.420670190729682E+001
  0.100000000000000E+001 -0.296348350382183E+001  0.904094380987813E+000  0.509980949683461E+001  0.381948301260677E+001
  0.100000000000000E+001 -0.304304978229557E+001  0.860375713665887E+000  0.516997752353273E+001  0.385839946872479E+001
  0.100000000000000E+001 -0.306806730826287E+001  0.877007962768040E+000  0.478944493107391E+001  0.404554620867405E+001
  0.100000000000000E+001 -0.312276275508349E+001  0.920158332747969E+000  0.481789213775768E+001  0.393527081325020E+001
  0.100000000000000E+001 -0.317966622732063E+001  0.736318407953043E+000  0.499070644364479E+001  0.421698022020174E+001
  0.100000000000000E+001 -0.319092491702503E+001  0.954632252027350E+000  0.492968247433700E+001  0.385082273418950E+001
  0.100000000000000E+001 -0.461224414584634E+001  0.969481792843558E+000  0.491960674923295E+001  0.404134246309231E+001
  0.100000000000000E+001 -0.460634948900310E+001  0.620233113230134E+000  0.501123830056369E+001  0.393282213371324E+001
  0.100000000000000E+001 -0.325516452031378E+001  0.975013558129778E+000  0.491265710772629E+001  0.411049263334831E+001
  0.100000000000000E+001 -0.326637955828915E+001  0.712886215529657E+000  0.485036015343367E+001  0.414273788172497E+001
  0.100000000000000E+001 -0.330754991435669E+001  0.585010940543587E+000  0.493917923767683E+001  0.400488196971223E+001
  0.100000000000000E+001 -0.337202002636466E+001  0.925562276302379E+000  0.516165434577618E+001  0.391397337281308E+001
  0.100000000000000E+001 -0.338155153450915E+001  0.867493395127797E+000  0.519362647583811E+001  0.391540267314561E+001
  0.100000000000000E+001 -0.338223172595131E+001  0.749632565211524E+000  0.481167595485420E+001  0.389419994394802E+001
  0.100000000000000E+001 -0.339323357694927E+001  0.593980600206574E+000  0.505873138996336E+001  0.405650742039412E+001
  0.100000000000000E+001 -0.344255030267673E+001  0.921220102799278E+000  0.497035321395330E+001  0.381828581421631E+001
  0.100000000000000E+001 -0.344911225203481E+001  0.958044016301130E+000  0.506252844013452E+001  0.414014262075745E+001
  0.100000000000000E+001 -0.460226087440152E+001  0.954844263007450E+000  0.511103613517729E+001  0.397372423660638E+001
  0.100000000000000E+001 -0.352672820109864E+001  0.100654978344997E+001  0.497650410834234E+001  0.406735459604480E+001
  0.100000000000000E+001 -0.357623021177101E+001  0.831523887544694E+000  0.520421422800077E+001  0.393247752177406E+001
  0.100000000000000E+001 -0.362030383665222E+001  0.615108181513413E+000  0.498565143878338E+001  0.411146698824574E+001
  0.100000000000000E+001 -0.367400681186907E+001  0.950783674117901E+000  0.496215145828162E+001  0.414869598843940E+001
  0.100000000000000E+001 -0.368172680810417E+001  0.100245765529728E+001  0.493037271175099E+001  0.398090905845853E+001
  0.100000000000000E+001 -0.379961913899342E+001  0.645030047049197E+000  0.495091621570822E+001  0.386362662283476E+001
  0.100000000000000E+001 -0.457003531053251E+001  0.712985037266511E+000  0.495080701486301E+001  0.416530846002501E+001
  0.100000000000000E+001 -0.380613753591206E+001  0.860417228843055E+000  0.512078923275758E+001  0.416345377920686E+001
  0.100000000000000E+001 -0.383099573292970E+001  0.715779095079634E+000  0.503839550799005E+001  0.380989092499661E+001
  0.100000000000000E+001 -0.383338018488380E+001  0.887968043829879E+000  0.503848455942600E+001  0.418832300361096E+001
  0.100000000000000E+001 -0.383539534922042E+001  0.592104184480384E+000  0.496734627770571E+001  0.401943976349957E+001
  0.100000000000000E+001 -0.384342472404417E+001  0.874596249590718E+000  0.505831015015281E+001  0.381126772326103E+001
  0.100000000000000E+001 -0.384467732192080E+001  0.643892279052551E+000  0.488526005657359E+001  0.391611230596057E+001
  0.100000000000000E+001 -0.386609327935428E+001  0.822777192128274E+000  0.488161240466552E+001  0.417269463681160E+001
  0.100000000000000E+001 -0.390283632410934E+001  0.978628662601050E+000  0.503115209780313E+001  0.410541241884187E+001
  0.100000000000000E+001 -0.391906093721120E+001  0.611202678841458E+000  0.500299532087846E+001  0.409041451095617E+001
  0.100000000000000E+001 -0.401080768681022E+001  0.715879642424358E+000  0.518020620345076E+001  0.394203271268665E+001
  0.100000000000000E+001 -0.405459254413414E+001  0.821246789709548E+000  0.488172293741047E+001  0.383257246780099E+001
  0.100000000000000E+001 -0.406114443002953E+001  0.778965193710455E+000  0.486311783025709E+001  0.415240786665360E+001
  0.100000000000000E+001 -0.415949325506683E+001  0.804914855315623E+000  0.514500837620802E+001  0.385726851761635E+001
  0.100000000000000E+001 -0.418500733764015E+001  0.752788959056613E+000  0.484668757568018E+001  0.387576176766718E+001
  0.100000000000000E+001 -0.456750940005600E+001  0.845427777330441E+000  0.503766884670835E+001  0.418401378921505E+001
  0.100000000000000E+001 -0.423684174373252E+001  0.901253782640779E+000  0.487816028707893E+001  0.412471219670217E+001
  0.100000000000000E+001 -0.426462417041241E+001  0.616851232357680E+000  0.507261942465728E+001  0.403943982703794E+001
  0.100000000000000E+001 -0.426981691045127E+001  0.909757130092611E+000  0.502371610566695E+001  0.416646784436845E+001
  0.100000000000000E+001 -0.434937680601805E+001  0.701325348588798E+000  0.484822634935599E+001  0.391782276674011E+001
  0.100000000000000E+001 -0.435575865356504E+001  0.886105910338681E+000  0.511486929482290E+001  0.413730267427603E+001
  0.100000000000000E+001 -0.437664587011699E+001  0.681428745074745E+000  0.491644717691465E+001  0.413495228099632E+001
  0.100000000000000E+001 -0.438828899289320E+001  0.792745118079893E+000  0.486140167057811E+001  0.414097437152979E+001
  0.100000000000000E+001 -0.446169103177162E+001  0.694541974679730E+000  0.489212585629858E+001  0.387492539312122E+001
  0.100000000000000E+001 -0.454509834966414E+001  0.843499441468873E+000  0.505602818193683E+001  0.381962136625567E+001
  0.100000000000000E+001 -0.454537568585530E+001  0.866316208233037E+000  0.498414028781332E+001  0.381857324678053E+001
  0.100000000000000E+001 -0.493732353183703E+001  0.672883017252763E+000  0.503878784405527E+001  0.412642125659783E+001
  0.100000000000000E+001 -0.496320704241997E+001  0.880976835988230E+000  0.488116295296759E+001  0.411272635649712E+001
  0.100000000000000E+001 -0.503333646457366E+001  0.851749449575127E+000  0.503848281258411E+001  0.416889788792615E+001
  0.100000000000000E+001 -0.505188659014501E+001  0.854449537644422E+000  0.501022216332028E+001  0.417155373185470E+001
  0.100000000000000E+001 -0.506774564123165E+001  0.885289585314553E+000  0.484568058734338E+001  0.396460872015266E+001
  0.100000000000000E+001 -0.508470772422268E+001  0.973576105920415E+000  0.496024849044429E+001  0.397848560280457E+001
  0.100000000000000E+001 -0.511412016847128E+001  0.926530542976479E+000  0.488355901209012E+001  0.395194680102950E+001
  0.100000000000000E+001 -0.522530590874065E+001  0.973718837186222E+000  0.499311265154276E+001  0.402323928866922E+001
  0.100000000000000E+001 -0.526081646069077E+001  0.936186619807081E+000  0.497390933148696E+001  0.410575022734027E+001
  0.100000000000000E+001 -0.526199728398613E+001  0.904222135192752E+000  0.513974881289395E+001  0.399738531491439E+001
  0.100000000000000E+001 -0.526243797817970E+001  0.698523888193227E+000  0.513374686153364E+001  0.395300223869114E+001
  0.100000000000000E+001 -0.528529650334071E+001  0.752050261038548E+000  0.483891445492858E+001  0.395620390135493E+001
  0.100000000000000E+001 -0.528873215477539E+001  0.835841333832420E+000  0.510950515101510E+001  0.412982870533854E+001
  0.100000000000000E+001 -0.530638767552905E+001  0.762345843014137E+000  0.493635652218055E+001  0.384351808722795E+001
  0.100000000000000E+001 -0.536189295865404E+001  0.943264086192443E+000  0.503542351498642E+001  0.391270486729334E+001
  0.100000000000000E+001 -0.536216530677016E+001  0.637422673448526E+000  0.499594016509256E+001  0.405430719244778E+001
  0.100000000000000E+001 -0.537799162632649E+001  0.929181495881469E+000  0.490416987900934E+001  0.405803108095529E+001
  0.100000000000000E+001 -0.540199829226604E+001  0.815626943741805E+000  0.490243168904252E+001  0.386130957498480E+001
  0.100000000000000E+001 -0.542928981220794E+001  0.769813984690249E+000  0.515649112606039E+001  0.405766478482880E+001
  0.100000000000000E+001 -0.547019782778990E+001  0.767911636602207E+000  0.516295673428100E+001  0.397293978942456E+001
  0.100000000000000E+001 -0.548887751220191E+001  0.887835972187263E+000  0.486188452087485E+001  0.396340799429806E+001
  0.100000000000000E+001 -0.549752289565561E+001  0.634694298271047E+000  0.498603771227875E+001  0.402286141133643E+001
  0.100000000000000E+001 -0.549870070170284E+001  0.856074750795448E+000  0.498678509684606E+001  0.384279702538376E+001
  0.100000000000000E+001 -0.553426013450713E+001  0.897640737567206E+000  0.487108080275358E+001  0.396098309096095E+001
  0.100000000000000E+001 -0.559280615222919E+001  0.744406022343561E+000  0.506218618901147E+001  0.414189051980184E+001
  0.100000000000000E+001 -0.564148596696513E+001  0.783975712421004E+000  0.494781724810571E+001  0.384629861246548E+001
  0.100000000000000E+001 -0.564717393983464E+001  0.749284280907791E+000  0.494117141090364E+001  0.385677232414471E+001
  0.100000000000000E+001 -0.565706629301142E+001  0.841719404129629E+000  0.501452258500203E+001  0.384348573067872E+001
  0.100000000000000E+001 -0.565823567508548E+001  0.914913824604373E+000  0.496018302280362E+001  0.410791597693690E+001
  0.100000000000000E+001 -0.577681476879352E+001  0.753875694222232E+000  0.515183984834926E+001  0.399176259936507E+001
  0.100000000000000E+001 -0.577966968912194E+001  0.844443537975126E+000  0.495866839226167E+001  0.414676023586163E+001
  0.100000000000000E+001 -0.578620638368862E+001  0.779774552414057E+000  0.509096536192644E+001  0.387165295503980E+001
  0.100000000000000E+001 -0.580661331019266E+001  0.760318039246176E+000  0.488643080345504E+001  0.389762793314434E+001
  0.100000000000000E+001 -0.587366757509333E+001  0.940814861852644E+000  0.495489856419021E+001  0.404918488594828E+001
  0.100000000000000E+001 -0.588732373310886E+001  0.735537456663760E+000  0.494981813865729E+001  0.386781861872761E+001
  0.100000000000000E+001 -0.593339192563998E+001  0.732559924223784E+000  0.501926330037019E+001  0.386301227876518E+001
  0.100000000000000E+001 -0.593767714444186E+001  0.882869845623340E+000  0.487731026064982E+001  0.395850495586828E+001
  0.100000000000000E+001 -0.597452849329304E+001  0.801652534779231E+000  0.488540887099347E+001  0.410069583375813E+001
  0.100000000000000E+001 -0.599135406573713E+001  0.885173512146276E+000  0.512577409805116E+001  0.400562156722593E+001
  0.100000000000000E+001 -0.602232268604479E+001  0.750923245256416E+000  0.485829568277694E+001  0.401751928511952E+001
  0.100000000000000E+001 -0.605525585678350E+001  0.699384272359879E+000  0.494871158754922E+001  0.390144945906158E+001
  0.100000000000000E+001 -0.610349941541657E+001  0.812501707615599E+000  0.485247082203582E+001  0.399208492646251E+001
  0.100000000000000E+001 -0.611178750397850E+001  0.662657277917130E+000  0.497197503544369E+001  0.395253952591827E+001
  0.100000000000000E+001 -0.613023383394088E+001  0.878855811756020E+000  0.488494257584254E+001  0.404753951352826E+001
  0.100000000000000E+001 -0.613329675995837E+001  0.776664182415308E+000  0.485629891871389E+001  0.402216449509094E+001
  0.100000000000000E+001 -0.621880927634665E+001  0.798604975112120E+000  0.514408506163488E+001  0.400826134027457E+001
  0.100000000000000E+001 -0.629218225690021E+001  0.669077363404577E+000  0.505433819916002E+001  0.400189587903333E+001
  0.100000000000000E+001 -0.635856880619722E+001  0.753353190582217E+000  0.489507351177403E+001  0.407904184186301E+001
  0.100000000000000E+001 -0.636492378043574E+001  0.911078487285646E+000  0.495783899443422E+001  0.392751845024408E+001
  0.100000000000000E+001 -0.639165822634187E+001  0.676344886695583E+000  0.504505055734355E+001  0.404221458942891E+001
  0.100000000000000E+001 -0.639638597419578E+001  0.673785094908705E+000  0.497924475220234E+001  0.394809671236754E+001
  0.100000000000000E+001 -0.644878442723928E+001  0.696911062153740E+000  0.491185671084289E+001  0.398840772734681E+001
  0.100000000000000E+001 -0.647318059560846E+001  0.760867516345570E+000  0.508965703346178E+001  0.409336622893288E+001
  0.100000000000000E+001 -0.648380668119079E+001  0.684088849021446E+000  0.503567354409291E+001  0.394107012552082E+001
  0.100000000000000E+001 -0.648765372377753E+001  0.717748508331002E+000  0.507216524575104E+001  0.392145621747392E+001
  0.100000000000000E+001 -0.654066146208643E+001  0.712259610267482E+000  0.492752579627561E+001  0.393172633911529E+001
  0.100000000000000E+001 -0.654781955731687E+001  0.836691835489823E+000  0.511689993263692E+001  0.394971369001342E+001
  0.100000000000000E+001 -0.655417437776436E+001  0.700640309087394E+000  0.503258211053773E+001  0.408088947832925E+001
  0.100000000000000E+001 -0.655640459258242E+001  0.853970406123572E+000  0.501717035708327E+001  0.388063869235792E+001
  0.100000000000000E+001 -0.657391190037320E+001  0.930959453910656E+000  0.500049678430807E+001  0.401135998329243E+001
  0.100000000000000E+001 -0.657807978144724E+001  0.735575397785990E+000  0.511306604598211E+001  0.401742227449065E+001
  0.100000000000000E+001 -0.660896937821351E+001  0.686016574392038E+000  0.495277231317893E+001  0.395869111367475E+001
  0.100000000000000E+001 -0.661379470330401E+001  0.886889843076535E+000  0.502906133035577E+001  0.409212188015021E+001
  0.100000000000000E+001 -0.661985018725375E+001  0.720520649930744E+000  0.502930660679144E+001  0.409820614759660E+001
  0.100000000000000E+001 -0.663841749815742E+001  0.751005405582891E+000  0.498629606841869E+001  0.411851730077464E+001
  0.100000000000000E+001 -0.663961170858305E+001  0.809528281786115E+000  0.487145472163409E+001  0.399717161573227E+001
  0.100000000000000E+001 -0.664521689774577E+001  0.804363195847840E+000  0.488257426963811E+001  0.405252413712642E+001
  0.100000000000000E+001 -0.665452145752434E+001  0.890084260878206E+000  0.492621299638797E+001  0.405398039507178E+001
  0.100000000000000E+001 -0.666607343130039E+001  0.674054565282418E+000  0.502163567899132E+001  0.399473652750152E+001
  0.100000000000000E+001 -0.667622501690579E+001  0.710749225652329E+000  0.501434046734213E+001  0.391008229488552E+001
  0.100000000000000E+001 -0.670442126532663E+001  0.895443417332642E+000  0.494651940325637E+001  0.393671524042940E+001
  0.100000000000000E+001 -0.673170044999636E+001  0.911092036003900E+000  0.504007361136760E+001  0.404188620651080E+001
  0.100000000000000E+001 -0.674538132468410E+001  0.688889552768892E+000  0.494575238724686E+001  0.401663265965531E+001
  0.100000000000000E+001 -0.675443869739674E+001  0.805617217593355E+000  0.511722792699612E+001  0.395876328562922E+001
  0.100000000000000E+001 -0.676850839717102E+001  0.677469311224163E+000  0.499267103036435E+001  0.398368356264833E+001
  0.100000000000000E+001 -0.677877448542031E+001  0.807488176258570E+000  0.499133463687840E+001  0.412288159923866E+001
  0.100000000000000E+001 -0.682319753640906E+001  0.888231770910608E+000  0.505097340091552E+001  0.393363973158316E+001
  0.100000000000000E+001 -0.689026913456964E+001  0.775073290421791E+000  0.490484378635923E+001  0.393336625181770E+001
  0.100000000000000E+001 -0.691446528226239E+001  0.716858450066367E+000  0.498338527153280E+001  0.408176536086469E+001
  0.100000000000000E+001 -0.691449091492401E+001  0.772500871316534E+000  0.506762459097284E+001  0.409243698964986E+001
  0.100000000000000E+001 -0.692305813059009E+001  0.894494778791998E+000  0.495394012113438E+001  0.394767948183172E+001
  0.100000000000000E+001 -0.693118622835098E+001  0.892360522670916E+000  0.494706971517760E+001  0.404873243380365E+001
  0.100000000000000E+001 -0.694357289849322E+001  0.859399223123386E+000  0.503517410591149E+001  0.390609803426927E+001
  0.100000000000000E+001 -0.697721656768718E+001  0.812232982841293E+000  0.507093716299206E+001  0.391019520643121E+001
  0.100000000000000E+001 -0.698153528307122E+001  0.894146468304051E+000  0.504182223144896E+001  0.394910025325059E+001
  0.100000000000000E+001 -0.698682033411083E+001  0.874081349176327E+000  0.505160861881622E+001  0.407070427437115E+001
  0.100000000000000E+001 -0.699869251695216E+001  0.778332126787092E+000  0.501020095965609E+001  0.411161680926440E+001
  0.100000000000000E+001 -0.702356269048847E+001  0.834083968828093E+000  0.506623573898848E+001  0.408505455091912E+001
  0.100000000000000E+001 -0.703009592134534E+001  0.868471170808728E+000  0.506853608905221E+001  0.394227359668731E+001
  0.100000000000000E+001 -0.703310671518228E+001  0.885731198507948E+000  0.492710449878088E+001  0.399508736934587E+001
  0.100000000000000E+001 -0.704325583328182E+001  0.876341529908338E+000  0.507779120953401E+001  0.397341553489284E+001
  0.100000000000000E+001 -0.705475740159623E+001  0.702413688363180E+000  0.501457641728726E+001  0.405230353154032E+001
  0.100000000000000E+001 -0.705624423545619E+001  0.908259858829153E+000  0.497375021681021E+001  0.399313683152025E+001
  0.100000000000000E+001 -0.706111937194749E+001  0.888457049398497E+000  0.504170851835536E+001  0.405332306983098E+001
  0.100000000000000E+001 -0.707798998499905E+001  0.785526536049062E+000  0.490587571794096E+001  0.405630303815517E+001
  0.100000000000000E+001 -0.708930886686388E+001  0.724364701471087E+000  0.496830284337217E+001  0.392651328829729E+001
  0.100000000000000E+001 -0.709538655300010E+001  0.892262141030644E+000  0.503502145408641E+001  0.404822989885410E+001
  0.100000000000000E+001 -0.714636149161613E+001  0.757652635694315E+000  0.506524973320368E+001  0.392580868161024E+001
  0.100000000000000E+001 -0.716296847263429E+001  0.869587759649903E+000  0.501101030194074E+001  0.408015875385197E+001
  0.100000000000000E+001 -0.716520061435535E+001  0.761505151859085E+000  0.502246795476043E+001  0.409685104604133E+001
  0.100000000000000E+001 -0.722177438751786E+001  0.718357332502890E+000  0.504322507881717E+001  0.404761425330077E+001
  0.100000000000000E+001 -0.722935150512800E+001  0.724516978188340E+000  0.503602104567574E+001  0.393892565004285E+001
  0.100000000000000E+001 -0.726813481818573E+001  0.823562988268588E+000  0.503561982139059E+001  0.390773159092375E+001
  0.100000000000000E+001 -0.727825555766352E+001  0.823142908306359E+000  0.490150857015426E+001  0.400028644858753E+001
  0.100000000000000E+001 -0.728103856212546E+001  0.760855755069512E+000  0.508608550048494E+001  0.403557277977874E+001
  0.100000000000000E+001 -0.728947864614885E+001  0.748943105065205E+000  0.495088457388178E+001  0.407144841161787E+001
  0.100000000000000E+001 -0.729384081751415E+001  0.836022341408825E+000  0.490883868365645E+001  0.402173455162084E+001
  0.100000000000000E+001 -0.730232162656383E+001  0.800022074606259E+000  0.500755029144652E+001  0.390030762349353E+001
  0.100000000000000E+001 -0.734909261946461E+001  0.752798872079115E+000  0.494126752331150E+001  0.393794827079164E+001
  0.100000000000000E+001 -0.735886551851468E+001  0.707621284869585E+000  0.497027991818919E+001  0.400360945012822E+001
  0.100000000000000E+001 -0.738406939119306E+001  0.783623923483830E+000  0.508318413399378E+001  0.404461304344106E+001
  0.100000000000000E+001 -0.741309774957045E+001  0.773760778195491E+000  0.508337512668509E+001  0.396467426460783E+001
  0.100000000000000E+001 -0.742760360989337E+001  0.790652879104460E+000  0.493426787565572E+001  0.406583826128158E+001
  0.100000000000000E+001 -0.742842512532620E+001  0.817701670952310E+000  0.491291323890828E+001  0.397106750577377E+001
  0.100000000000000E+001 -0.743840290200936E+001  0.739815700184110E+000  0.502731759080155E+001  0.393468259148023E+001
  0.100000000000000E+001 -0.751271106282222E+001  0.738440215652467E+000  0.503189663777808E+001  0.405553989924982E+001
  0.100000000000000E+001 -0.752406830774870E+001  0.771314597044597E+000  0.499980102317959E+001  0.408339795306473E+001
  0.100000000000000E+001 -0.752516888716856E+001  0.808527823766878E+000  0.493584963983306E+001  0.394017431799026E+001
  0.100000000000000E+001 -0.754227404842609E+001  0.833768936260057E+000  0.495778052138740E+001  0.393163899011391E+001
  0.100000000000000E+001 -0.754994783660012E+001  0.755889325663425E+000  0.493871917384911E+001  0.395735936237345E+001
  0.100000000000000E+001 -0.755594145407876E+001  0.744612001190903E+000  0.493592242870776E+001  0.401690010330695E+001
  0.100000000000000E+001 -0.756293445471377E+001  0.778567119038968E+000  0.505337903081933E+001  0.406388082437417E+001
  0.100000000000000E+001 -0.756690825546903E+001  0.749180248513161E+000  0.493862886175714E+001  0.396836699062271E+001
  0.100000000000000E+001 -0.757139334410019E+001  0.735683971858636E+000  0.502791239291664E+001  0.404887951505638E+001
  0.100000000000000E+001 -0.758529435873367E+001  0.824450998192335E+000  0.498208830539360E+001  0.407903904025070E+001
  0.100000000000000E+001 -0.760528697679837E+001  0.867990560081688E+000  0.504791292775072E+001  0.400689629708696E+001
  0.100000000000000E+001 -0.762516812000369E+001  0.799012013065518E+000  0.497980015589156E+001  0.407973771107285E+001
  0.100000000000000E+001 -0.764296426939339E+001  0.843486949316642E+000  0.497366685449818E+001  0.393671807856473E+001
  0.100000000000000E+001 -0.768283780002315E+001  0.781079259614607E+000  0.492860844233895E+001  0.397287682420643E+001
  0.100000000000000E+001 -0.771349285156515E+001  0.871558837567921E+000  0.501505894132951E+001  0.402316087484689E+001
  0.100000000000000E+001 -0.772241734759799E+001  0.833347780788440E+000  0.505131587762735E+001  0.404526838114185E+001
  0.100000000000000E+001 -0.775743295606998E+001  0.810789340091535E+000  0.506746954381282E+001  0.402785524770563E+001
  0.100000000000000E+001 -0.778504086716662E+001  0.772168309791109E+000  0.505710113199923E+001  0.396633633026215E+001
  0.100000000000000E+001 -0.779562994009992E+001  0.801308685928426E+000  0.504058935798568E+001  0.405842333049232E+001
  0.100000000000000E+001 -0.779805910607281E+001  0.768507151431116E+000  0.493640335677189E+001  0.400136747422943E+001
  0.100000000000000E+001 -0.780891796003973E+001  0.788686293864419E+000  0.506406840058519E+001  0.402639799399384E+001
  0.100000000000000E+001 -0.781047715377852E+001  0.803075008741834E+000  0.497977366817610E+001  0.393295179441801E+001
  0.100000000000000E+001 -0.782925021768757E+001  0.802803596502830E+000  0.500716096631211E+001  0.393168344403724E+001
  0.100000000000000E+001 -0.786082784784061E+001  0.752807944924339E+000  0.495780214776580E+001  0.397993096132067E+001
  0.100000000000000E+001 -0.787225760609093E+001  0.776691051809365E+000  0.498243539852852E+001  0.405868897030829E+001
  0.100000000000000E+001 -0.787709180131860E+001  0.864542968006472E+000  0.500305638176749E+001  0.400852873880379E+001
  0.100000000000000E+001 -0.793305821035096E+001  0.759264570722511E+000  0.502977062073359E+001  0.403380157432085E+001
  0.100000000000000E+001 -0.793632341514209E+001  0.790250708817785E+000  0.504045040612694E+001  0.395613343640595E+001
  0.100000000000000E+001 -0.795527819215257E+001  0.769168108775986E+000  0.495433799231436E+001  0.397925422444198E+001
  0.100000000000000E+001 -0.798147616402630E+001  0.778103260023290E+000  0.499839698513152E+001  0.405217274258483E+001
  0.100000000000000E+001 -0.800615896299048E+001  0.775103720836906E+000  0.498677308893892E+001  0.404650191463879E+001
  0.100000000000000E+001 -0.800808722584951E+001  0.777650464101210E+000  0.502473371205886E+001  0.395726052104008E+001
  0.100000000000000E+001 -0.803439419654110E+001  0.831516333866698E+000  0.498480259040047E+001  0.403808688833468E+001
  0.100000000000000E+001 -0.806086172254171E+001  0.803368251020176E+000  0.496286732065853E+001  0.403193736639007E+001
  0.100000000000000E+001 -0.806736054026236E+001  0.832401379968058E+000  0.503507329260299E+001  0.399192516830584E+001
  0.100000000000000E+001 -0.808090733425206E+001  0.760743216727452E+000  0.497601261033717E+001  0.400965558641914E+001
  0.100000000000000E+001 -0.809776682096085E+001  0.757071591550048E+000  0.500706312528013E+001  0.401218151825452E+001
  0.100000000000000E+001 -0.814044784081934E+001  0.831406597465099E+000  0.500756860197770E+001  0.402388842981314E+001
  0.100000000000000E+001 -0.814225438597348E+001  0.792630648921328E+000  0.503178099356223E+001  0.402306319233116E+001
  0.100000000000000E+001 -0.816423049060176E+001  0.794001179339697E+000  0.498948760644951E+001  0.396492875231946E+001
  0.100000000000000E+001 -0.817551555779859E+001  0.814931248499665E+000  0.497859752901352E+001  0.402413773111314E+001
  0.100000000000000E+001 -0.819058860054644E+001  0.806237325561916E+000  0.497153470427183E+001  0.398376022503726E+001
  0.100000000000000E+001 -0.826163721442799E+001  0.818158390749266E+000  0.499548076389437E+001  0.399277014567913E+001
  0.100000000000000E+001 -0.827323317041797E+001  0.811022527450566E+000  0.498753125319134E+001  0.399691842170216E+001
