  0.537920986271528E-002  0.129007186422361E+002 -0.470397923544440E+000  0.870493424389223E+000 -0.158582206520069E+001 -0.279390772689783E-001 -0.465497677001292E+000
  0.537920986271528E-002  0.899360423523422E+001  0.207459980996766E+000 -0.144344729175256E+001 -0.596083679591316E+000  0.136162821590724E+001 -0.704642152510876E+000
  0.537920986271528E-002  0.900615866108726E+001  0.149788482083330E+001 -0.365466026979506E+000  0.830668919676442E+000  0.112348853886414E+001  0.718011255988730E+000
  0.537920986271528E-002  0.141375421797599E+002  0.497887302402458E+000  0.950753520426001E+000 -0.223202709169750E+001 -0.167436995753308E+001 -0.101936336582040E+001
  0.537920986271528E-002  0.900704541677884E+001  0.853304804039402E+000 -0.121321404100980E+001  0.117671174177779E+001  0.797505670077047E+000  0.790699316371143E+000
  0.537920986271528E-002  0.901656671510514E+001  0.193685598878775E+001 -0.617385556041108E+000  0.350551902663470E+000 -0.418643583846975E+000 -0.651678440114828E+000
  0.537920986271528E-002  0.189722357098612E+002 -0.148195504433684E+001  0.127759966765481E+001 -0.330552564513213E+001 -0.183740560641462E+000  0.149555569795446E+000
  0.537920986271528E-002  0.901668487230868E+001 -0.733096783077832E+000  0.602513829963470E+000 -0.872108351191432E+000 -0.120836990596611E+001 -0.131694474632148E+001
  0.537920986271528E-002  0.141777970364176E+002  0.598646694639875E-001 -0.165654455311422E+001  0.123943835297117E+000  0.136654314411127E-001 -0.269320771387286E+001
  0.537920986271528E-002  0.108981138207583E+002 -0.352762149374864E+000 -0.362427537475076E+000  0.664123338867965E+000  0.209698832603341E+001 -0.128169509834854E+001
  0.537920986271528E-002  0.141989531188353E+002  0.294345311195699E+001 -0.677274213302827E+000 -0.806242530601512E+000  0.213817459065093E+000  0.468438704275184E+000
  0.537920986271528E-002  0.901720308306628E+001 -0.201610047595524E+000  0.145760318860953E+001  0.727257773362037E+000 -0.580900727347054E+000  0.135071947474524E+001
  0.537920986271528E-002  0.897312540112397E+001 -0.903996608788125E+000 -0.124410237780994E+001 -0.106310865570557E+001 -0.272841565328606E+000  0.111459655455142E+001
  0.537920986271528E-002  0.241240847893265E+002 -0.127486712596078E+001  0.279563162318992E+001  0.238959472068455E+001  0.443415260105661E+000  0.214832623522295E+001
  0.537920986271528E-002  0.194922480721250E+002 -0.655112851144851E+000  0.290903353010783E+000  0.215356128335795E+001  0.299788676606195E+001  0.109185274069493E+001
  0.537920986271528E-002  0.142350471042516E+002  0.247245231926008E+001  0.195311724513624E+000 -0.783512281371189E+000 -0.103396673383297E+001  0.149657758530777E+001
  0.537920986271528E-002  0.854197002529254E+001 -0.453821770706118E+000  0.169634552670433E+001  0.617603916371805E+000 -0.181829642633697E+000 -0.939560679451619E+000
  0.537920986271528E-002  0.901897231502632E+001 -0.257052558202020E+000  0.903196747576162E+000 -0.187716866038608E+001 -0.626776667178828E+000 -0.243647223530737E+000
  0.537920986271528E-002  0.142552431645907E+002 -0.175377601434556E+001  0.997334108355520E+000 -0.195745110305994E+001  0.147701033657448E+001 -0.102500654939094E+000
  0.537920986271528E-002  0.197407538648315E+002  0.141898839699667E+001 -0.790354008792367E+000  0.277748430924245E+001  0.626931967082150E+000  0.219862383377475E+001
  0.537920986271528E-002  0.142570806583084E+002  0.208328479645720E+001  0.675314661102755E+000 -0.165057041981135E+001  0.160454739686909E+001 -0.290408535767481E-001
  0.537920986271528E-002  0.855689016760575E+001 -0.143024003062005E+001 -0.235948286490939E+000  0.890753530106599E+000  0.105058237734419E+001  0.630325354566908E+000
  0.537920986271528E-002  0.903198333435850E+001 -0.148879605061669E+001 -0.846100865999801E+000  0.643059411015400E+000  0.262677210247789E+000  0.120660741866431E+001
  0.537920986271528E-002  0.905277662587839E+001  0.133735561972883E+001 -0.111431704256952E+001 -0.319851114204508E+000 -0.131905724666718E+001  0.138493872528432E+000
  0.537920986271528E-002  0.143166764453451E+002 -0.108895117342735E+001 -0.179105224606814E+001 -0.138920082308275E+001  0.181091197574072E+001  0.743340928127425E+000
  0.537920986271528E-002  0.906548571643106E+001 -0.133503559955059E+001 -0.500211457069098E+000  0.859155453528283E+000 -0.229630565351872E+000  0.144253910858008E+001
  0.537920986271528E-002  0.143422900824022E+002 -0.275452323043982E+001 -0.281830655638545E+000 -0.145789317547211E+001 -0.499127322108413E+000 -0.373799343528668E+000
  0.537920986271528E-002  0.907173564139005E+001  0.150618651938652E+001 -0.258097287687484E+000 -0.939413149941426E+000  0.129214843011348E+001 -0.152388239844466E+000
  0.537920986271528E-002  0.859056094085090E+001  0.258261013504164E-001  0.126562871009287E+000  0.144126630687572E+001  0.708894928526631E+000 -0.135386055894602E+001
  0.537920986271528E-002  0.143536970756938E+002  0.104953322426994E+000  0.588577506556894E+000  0.165550239710778E+001  0.164114898400343E+001 -0.209786639877979E+001
  0.537920986271528E-002  0.143564738612902E+002  0.458236898212943E+000  0.276722731393533E+001 -0.925449735673591E+000 -0.120994069388221E+000 -0.120693505558707E+001
  0.537920986271528E-002  0.222991927180143E+002  0.292740373412132E+001  0.209684450454309E+001 -0.192386882730494E+001  0.112807553864909E+001  0.444702980351998E+000
  0.537920986271528E-002  0.209649854754366E+002  0.740103351141912E+000  0.850714912347330E+000 -0.189310398101783E+001  0.143335343359839E+001 -0.314547533792507E+001
  0.537920986271528E-002  0.143934072748762E+002 -0.176585614376139E+001  0.778881717675690E+000  0.185295689082327E+001  0.158698308394981E+001 -0.745239077993369E+000
  0.537920986271528E-002  0.109077622014188E+002 -0.314000600061998E+000  0.119216369479875E+001  0.159164503156071E+001  0.153678114254854E+001  0.575955354061758E+000
  0.537920986271528E-002  0.215855809146669E+002  0.240839794810534E+001  0.368903734655321E+000  0.186797749184892E+001 -0.124993114803632E+001  0.253698358192843E+001
  0.537920986271528E-002  0.907419899189983E+001 -0.590317329673971E+000 -0.170548049279443E+000 -0.942526021968201E+000 -0.823381687733439E+000 -0.172312747826886E+001
  0.537920986271528E-002  0.909803358311660E+001 -0.132949814990714E+001  0.172284769674167E+000  0.482006602942056E-001  0.655533805243324E+000  0.164547304573870E+001
  0.537920986271528E-002  0.217323773887207E+002  0.142043913935973E+001  0.202897955544015E+001 -0.121105815909330E+001 -0.289609739568975E+001 -0.125808315335193E+001
  0.537920986271528E-002  0.109155423772130E+002  0.115039466703784E+001 -0.100009476830325E+001  0.153768691612505E+000  0.133181509665049E+001 -0.162277906276971E+001
  0.537920986271528E-002  0.910198479687733E+001 -0.615707210716170E+000  0.687484947239078E+000  0.144510278985314E+001  0.141417698420537E+001  0.296389278710638E-001
  0.537920986271528E-002  0.144343169045827E+002 -0.242886765131869E+001 -0.456763879706646E+000  0.698890050406129E+000  0.138439324452285E+001  0.132670149023518E+001
  0.537920986271528E-002  0.859666595907126E+001  0.187391456068725E+000 -0.116908693436861E+001 -0.145408869032236E+000  0.137583029133902E+001  0.105810047654597E+001
  0.537920986271528E-002  0.911147216932264E+001 -0.150342605103221E+000 -0.130077604993222E+001 -0.169177368382834E+000 -0.873857682956074E+000  0.156315255601480E+001
  0.537920986271528E-002  0.187006948459763E+002  0.165301266537777E+001  0.195749785048839E+001  0.150453234833110E+001 -0.231084489738307E+001  0.609645486777318E+000
  0.537920986271528E-002  0.144471314825957E+002  0.192753512640598E+001  0.128039863339651E+001  0.765615909546444E+000 -0.828440027188536E+000  0.191276809000415E+001
  0.537920986271528E-002  0.144572011976513E+002 -0.727864777049496E+000 -0.166080117833121E+001  0.180089636929867E+001  0.176514969837819E+001 -0.805614998911852E+000
  0.537920986271528E-002  0.144917897531157E+002  0.270406603069464E+000 -0.202381588686598E+000 -0.976860646241482E+000  0.297811333985093E+001  0.627008081760692E+000
  0.537920986271528E-002  0.184919110672972E+002  0.283856480605077E+001 -0.777847935189014E+000  0.531494526459776E+000  0.183021025612434E+001  0.142692000219482E+001
  0.537920986271528E-002  0.109164202677898E+002 -0.975043008759939E+000 -0.166027157467196E+001 -0.250510900154173E+000 -0.509868524456810E+000 -0.165085774097602E+001
  0.537920986271528E-002  0.144956146510235E+002 -0.355708511781877E+000 -0.207598384492574E+001  0.984254753512817E+000  0.195938473312324E+001 -0.104416207369424E+001
  0.537920986271528E-002  0.109266476285416E+002 -0.211072779427401E+001 -0.913528268866481E+000  0.867750142221208E+000  0.672474445476515E+000 -0.520166249320826E+000
  0.537920986271528E-002  0.911515813049108E+001 -0.396303408357762E+000 -0.306795211096091E+000  0.120699170586214E+001  0.408730965598116E+000  0.175468848069354E+001
  0.537920986271528E-002  0.911899696597068E+001  0.779117977732374E+000  0.521868607872086E+000  0.826562286024130E+000 -0.173215182763483E+001  0.628421307150051E+000
  0.537920986271528E-002  0.912412259747652E+001  0.175344110137408E+001  0.778753384774386E+000 -0.475642230072396E+000 -0.929548125773019E+000  0.437787648419179E+000
  0.537920986271528E-002  0.913007178348802E+001 -0.587926733456228E-001  0.200398052500194E+001  0.720544943081464E+000  0.337953480856120E+000 -0.562248074529871E+000
  0.537920986271528E-002  0.913680021536956E+001  0.143430071435735E+001 -0.141452918953450E+001  0.942853473153531E+000 -0.120515004126922E-001  0.168564956892963E+000
  0.537920986271528E-002  0.145511887523376E+002  0.794104163306519E+000 -0.267030263216711E+001 -0.103423420430014E+001 -0.110307686395117E+000 -0.124382724477713E+001
  0.537920986271528E-002  0.915163199621922E+001 -0.548948495099438E+000 -0.158301023949433E+001 -0.553159297069793E+000  0.388713952530627E+000  0.131382098851039E+001
  0.537920986271528E-002  0.915446393938664E+001  0.883272737478973E+000  0.376307757232792E+000 -0.376661519763925E+000 -0.530454051922219E+000 -0.191004541513066E+001
  0.537920986271528E-002  0.915564489190236E+001  0.656808424380772E+000  0.261048819163001E-002 -0.142933706814905E+001  0.154749880996742E+001  0.354015475303610E+000
  0.537920986271528E-002  0.916114958330337E+001 -0.114802605914464E+001  0.109831692038727E+001 -0.612393023115927E+000 -0.144192445392925E+001 -0.146824911689811E+000
  0.537920986271528E-002  0.916204286765591E+001  0.423751800381514E+000 -0.126665576052966E+001 -0.120468558995987E+001 -0.129001731665411E+001 -0.318577498884797E+000
  0.537920986271528E-002  0.179703640068276E+002  0.341494937223029E+001 -0.910897633747723E+000  0.378996230723753E+000 -0.138813904122947E+000 -0.107456319356167E+001
  0.537920986271528E-002  0.109517242722523E+002 -0.744421909328707E-001 -0.203487553951524E+001 -0.760401058048746E+000 -0.114544780350345E+001 -0.868358761449002E+000
  0.537920986271528E-002  0.109549617525312E+002 -0.187065556899109E-001 -0.146919107242300E+001  0.121500438817853E+001  0.158348517715309E+001 -0.807014031808087E+000
  0.537920986271528E-002  0.178599573731483E+002  0.625319428549975E+000 -0.948854129727906E+000  0.251310872856378E+001  0.100410622757048E+001 -0.225466344166242E+001
  0.537920986271528E-002  0.178315682787413E+002  0.251644541623691E+001  0.132110638664269E+001  0.102279064215912E+001 -0.896614598204879E+000 -0.193457319134865E+001
  0.537920986271528E-002  0.916550628602452E+001 -0.194301414194397E+001 -0.764253090991579E+000  0.246513298638394E+000  0.729729831436307E+000  0.227350647503351E+000
  0.537920986271528E-002  0.177071483196827E+002 -0.104566776011948E+000 -0.248944652206895E+000 -0.289954855521583E+001 -0.212458561875851E+001  0.742857995015730E+000
  0.537920986271528E-002  0.146396187134339E+002  0.866221697874610E+000 -0.264262184796273E+001 -0.115495092185891E+001  0.118575901113270E+001  0.688156590016913E-001
  0.537920986271528E-002  0.176819404489086E+002 -0.329946126964838E+000 -0.568921963915257E+000  0.138361795498232E+001 -0.333181014302631E+001 -0.269980617333294E+000
  0.537920986271528E-002  0.109610631349002E+002 -0.327152222036424E+000 -0.204277187411251E+001 -0.282280961122859E+000 -0.154565043629860E+000 -0.155447352573170E+001
  0.537920986271528E-002  0.916727795399982E+001  0.932603920428825E-001  0.155846950518705E+001  0.137375273764093E+001 -0.635069741808374E+000  0.527338885931164E+000
  0.537920986271528E-002  0.917053022441397E+001 -0.126853924103213E+001  0.624308749029440E+000 -0.350393708466735E+000 -0.144781990550112E+001  0.889641490509693E+000
  0.537920986271528E-002  0.109613985587106E+002 -0.756003012446742E+000 -0.230924722767613E+001  0.171273737702434E+000 -0.929530420854055E+000 -0.521244271550985E-001
  0.537920986271528E-002  0.146498364669691E+002  0.438994755187407E+000  0.178265976780884E+001 -0.200003135531957E+001  0.841778074382833E+000  0.155221508896913E+001
  0.537920986271528E-002  0.175830149047741E+002  0.269496392494015E+001  0.527330231173705E+000 -0.401893509523254E+000 -0.117069805251789E+000 -0.238866629107348E+001
  0.537920986271528E-002  0.861945009191218E+001  0.119404281724439E+001  0.420847422086914E+000 -0.134639307610977E+001 -0.702693250928139E+000 -0.740871363058083E+000
  0.537920986271528E-002  0.917338065802555E+001 -0.125617033060022E+001 -0.119965132791674E+000 -0.167342175543879E+001 -0.403478516321647E+000 -0.675820277754657E+000
  0.537920986271528E-002  0.918014861888167E+001 -0.645738844033159E+000 -0.191605100896247E+001  0.535276457676550E+000  0.792042756279372E-001  0.798728676645286E+000
  0.537920986271528E-002  0.147278923712069E+002  0.119681165939348E+001 -0.116670552832890E+001 -0.259448635732357E+001  0.957798052848764E+000  0.352759226680595E+000
  0.537920986271528E-002  0.918137449628353E+001  0.138624149875652E+001 -0.133934859581368E+001  0.244630890439286E+000 -0.924320888019014E+000  0.624887328075323E+000
  0.537920986271528E-002  0.174096373705695E+002 -0.122477747791215E+001 -0.218140023567357E+001  0.170336079810143E+001 -0.196739784523928E+001 -0.466692006664766E+000
  0.537920986271528E-002  0.173866429414990E+002  0.291770398595665E+001  0.404667222302706E-001  0.407405682394329E+000 -0.905293479125416E+000 -0.193010786483637E+001
  0.537920986271528E-002  0.918357061242416E+001 -0.264668034015685E-001 -0.829586502998640E+000 -0.187358367872558E+001 -0.151902965209886E+000 -0.894488261427543E+000
  0.537920986271528E-002  0.919357180852829E+001  0.376852542108738E+000  0.180936957008709E+001  0.851409330034114E+000  0.867178655785500E+000  0.373740909765067E+000
  0.537920986271528E-002  0.147393579440424E+002 -0.417276840306568E+000 -0.134066445891381E+001 -0.198624311570417E+001 -0.178165144571169E+001 -0.121953122533886E+001
  0.537920986271528E-002  0.173227256068292E+002 -0.303595460316885E+000 -0.230260584179278E+001 -0.257699219600461E+001  0.123825534320583E+000 -0.105412684554622E+001
  0.537920986271528E-002  0.172654381912310E+002  0.206283640058276E+001  0.144311976598780E+001 -0.200687225547378E+001 -0.280372029690827E+000  0.163102667020729E+001
  0.537920986271528E-002  0.921095828310736E+001 -0.956028056437617E+000  0.584317128630648E+000 -0.144724485785585E+001  0.127758787635951E+001  0.260070910066984E+000
  0.537920986271528E-002  0.172370606342001E+002  0.127354216212507E+001  0.918525412043264E+000 -0.284030317494457E+001  0.140427182931127E+001  0.755647916557017E+000
  0.537920986271528E-002  0.921553716242753E+001 -0.115345398476678E+000 -0.140459247065575E+000  0.303800769158214E+000  0.214870731089101E+001 -0.558667157838834E+000
  0.537920986271528E-002  0.171631084935903E+002 -0.112619998903201E+001  0.283033077084283E+000  0.655784428957441E+000  0.329571802784685E+001 -0.601420839601310E+000
  0.537920986271528E-002  0.921812432819803E+001  0.398116959252245E+000 -0.200763875804982E+001  0.186376627639270E+000  0.147739728360916E+000 -0.900718471297985E+000
  0.537920986271528E-002  0.170641902259418E+002 -0.229395837388110E+000  0.226323361418954E+001 -0.121875772633547E+001 -0.161621682332079E+001  0.190542839669183E+001
  0.537920986271528E-002  0.148072995957560E+002  0.715020331595370E+000 -0.166236356303741E+001  0.515004510497720E+000 -0.251678170278358E+001  0.878644596649497E+000
  0.537920986271528E-002  0.170409695921083E+002 -0.128722392171842E+001  0.174352747677769E+001  0.156027491280276E+001 -0.223037427494746E+001  0.879745475913395E+000
  0.537920986271528E-002  0.863960231905063E+001  0.313250543342662E+000 -0.144741845237772E+001  0.500325741752992E+000  0.685178129705154E+000  0.125120123467389E+001
  0.537920986271528E-002  0.921985531801420E+001  0.182303932213333E+000  0.763068995575112E+000 -0.171840024726176E+001 -0.116050023516461E+001  0.378852614842661E+000
  0.537920986271528E-002  0.864307769931245E+001 -0.360642991421366E+000 -0.356393354436652E+000 -0.153817468977449E+001 -0.249654368955346E+000 -0.134034795327069E+001
  0.537920986271528E-002  0.924673492737559E+001  0.205145371859499E+001 -0.351581316819721E+000 -0.794005914579747E+000 -0.235425412780853E+000 -0.260068904724830E+000
  0.537920986271528E-002  0.169371016709788E+002 -0.190963069087954E+001  0.175859662321545E+001 -0.228648803010758E+000 -0.680563321318451E+000  0.234971204828941E+001
  0.537920986271528E-002  0.926465397342198E+001 -0.209079583675256E-001 -0.810702768204082E+000  0.161895763359733E+001  0.989526351063084E+000  0.919584058456646E+000
  0.537920986271528E-002  0.926876754766490E+001 -0.246451751938412E+000  0.464083050773567E+000  0.133879499037307E+001  0.989366961428774E+000  0.143536761844310E+001
  0.537920986271528E-002  0.149537272998037E+002  0.713413531549397E+000  0.101592256147365E+001  0.145262747374060E+001 -0.188997052446230E+001 -0.188928500448349E+001
  0.537920986271528E-002  0.864676431011581E+001  0.547426527374277E-001 -0.973187250273714E+000 -0.743529731105082E+000 -0.145341246566962E+001  0.932884279353280E+000
  0.537920986271528E-002  0.149659179760216E+002  0.857618775422475E-001 -0.937536944194663E+000  0.224104355182067E+001 -0.492972606427735E+000 -0.215711204388664E+001
  0.537920986271528E-002  0.929668973465800E+001 -0.648847454030846E+000 -0.543465316188220E+000 -0.974673350294919E+000  0.185766081450584E+001 -0.135216610312005E+000
  0.537920986271528E-002  0.149891600092144E+002  0.176743781298739E+000  0.237185715461452E+001  0.717889083711626E+000  0.198824574897729E+000 -0.214852566707236E+001
  0.537920986271528E-002  0.929990187705459E+001 -0.208480504454676E+000 -0.279073094913720E+000  0.161825904484478E+000  0.222669444242042E+001 -0.181778458068501E+000
  0.537920986271528E-002  0.930374329894054E+001  0.144300026927169E+001 -0.794725978574625E+000 -0.111070721034254E+001  0.158007449343283E+000 -0.108171645393784E+001
  0.537920986271528E-002  0.109883894198186E+002 -0.168377493324833E+001 -0.876017943143565E+000 -0.148908549892967E+001 -0.237384713681809E+000 -0.975192308693528E+000
  0.537920986271528E-002  0.167380961906648E+002  0.186803359711314E+001 -0.228523551329223E+001  0.153184067799358E+001 -0.110022028612144E+000  0.122737435896607E+001
  0.537920986271528E-002  0.167075687895019E+002 -0.269199616294036E-001  0.180644839482902E+001  0.227469536673145E+001  0.200763728403236E+001 -0.278540900757584E+000
  0.537920986271528E-002  0.930677287454057E+001  0.214852840767685E+000  0.859043007336999E+000 -0.192524626982549E+001 -0.698633111033441E+000 -0.408458108824566E+000
  0.537920986271528E-002  0.150073168005198E+002  0.481292359030668E+000  0.154201005963318E+001 -0.279456333926306E+001  0.653529109675758E+000 -0.617206413093241E-002
  0.537920986271528E-002  0.933866676787744E+001 -0.142903259210497E+001  0.219739629727874E+000 -0.737200898758184E+000 -0.389188138066272E+000 -0.154666019178054E+001
  0.537920986271528E-002  0.935257437622077E+001 -0.358791861159880E+000  0.134611661002595E+001 -0.771794579645555E+000 -0.154995839371095E+001  0.502611341363200E+000
  0.537920986271528E-002  0.936036347950037E+001  0.157332803478586E+001 -0.142385944775766E+001 -0.686240851064722E+000 -0.447636609314456E+000 -0.158634217285138E+000
  0.537920986271528E-002  0.936060701850203E+001 -0.355331505426046E+000  0.598352896855086E+000 -0.158839678856681E+001 -0.717777233757855E+000 -0.129497298907048E+001
  0.537920986271528E-002  0.936199526532748E+001 -0.302272681804023E+000  0.121310813198483E+001 -0.184212233497412E+001 -0.436601722790989E+000 -0.231953868245274E+000
  0.537920986271528E-002  0.150450334182220E+002  0.196024677065062E+001 -0.183211728870674E+001  0.459764239094185E+000 -0.781014420443038E+000 -0.169212552234804E+001
  0.537920986271528E-002  0.166499321046070E+002 -0.248126267689955E+001 -0.558536539584145E+000  0.187931147327913E+001 -0.117147260494309E+001  0.105640337756216E+001
  0.537920986271528E-002  0.109934284527223E+002  0.965753448471994E+000  0.175939119493089E+001 -0.519817953470999E+000  0.655899043704313E+000  0.145042073188339E+001
  0.537920986271528E-002  0.109938683700824E+002 -0.673577819801285E+000 -0.144268258992830E+001 -0.178715443987911E+001  0.848207356427498E+000 -0.619915099887325E+000
  0.537920986271528E-002  0.936300441970390E+001 -0.326687342370637E+000 -0.151641263201337E+001  0.313826212295679E+000 -0.118522559275821E+001 -0.113682414617647E+001
  0.537920986271528E-002  0.936325390169138E+001  0.762237060805418E+000 -0.422043403440794E+000  0.984246780133909E+000 -0.114481971718592E+001  0.147092393700366E+001
  0.537920986271528E-002  0.110014101404570E+002  0.832760993830375E-001 -0.121867249422995E+001  0.149632639479878E+001 -0.153821398381322E+001  0.862009774213478E+000
  0.537920986271528E-002  0.865134352704072E+001  0.374651898363862E+000  0.681713802737084E+000  0.152638180892363E+001 -0.253579459722579E+000 -0.122104259193462E+001
  0.537920986271528E-002  0.110079723706055E+002 -0.286819763110491E+000 -0.779089534071474E+000  0.122336773170560E+001 -0.933901240120923E+000 -0.194647614056554E+001
  0.537920986271528E-002  0.936456084726283E+001  0.770457551419374E+000  0.354023797446469E+000  0.198941070766323E+001 -0.688450485826340E+000 -0.229667872022613E+000
  0.537920986271528E-002  0.936802807967664E+001  0.376345031104494E+000 -0.771897935091743E+000 -0.153739882952770E+001  0.638200612832178E+000  0.130327053939769E+001
  0.537920986271528E-002  0.110152174357268E+002  0.163904725238971E+000 -0.933165988113527E-001  0.164368484178046E+001 -0.150116500210618E+001 -0.136502442233972E+001
  0.537920986271528E-002  0.937359232358234E+001  0.104046386616824E+000  0.162892485591354E+001 -0.170357905672339E+000 -0.149482049506764E+001 -0.533576203906978E+000
  0.537920986271528E-002  0.865335495069244E+001  0.626202992453925E+000  0.392956165993080E+000 -0.476034458475445E+000  0.351124791864565E+000 -0.189624787316902E+001
  0.537920986271528E-002  0.937381234888603E+001  0.490285795254732E+000  0.101259783466220E+001 -0.100044667879017E+001  0.947197306877630E+000  0.143137860991078E+001
  0.537920986271528E-002  0.152377485063129E+002 -0.563407259496724E-001 -0.840768271673820E+000 -0.167332567880944E+001 -0.462342491548442E+000  0.271159487063951E+001
  0.537920986271528E-002  0.164223696126862E+002  0.134599433951484E+001 -0.191045333107983E+001 -0.192378858224141E+001  0.839321942070409E+000  0.154733845551537E+001
  0.537920986271528E-002  0.164084557845682E+002 -0.217849293329777E+001 -0.641255978057453E+000  0.702321467627561E+000  0.255656948482794E+001 -0.246891326650623E+000
  0.537920986271528E-002  0.163739037250504E+002  0.231492559232354E+000  0.178336100729529E+001  0.756972493240494E+000 -0.126161730302089E+001 -0.261038236088097E+001
  0.537920986271528E-002  0.938485395755051E+001  0.126118006860598E+001 -0.293211827278910E+000 -0.568074218665356E+000  0.122526549679437E+001  0.131269378301721E+001
  0.537920986271528E-002  0.152481405694573E+002  0.174918779364674E+001  0.107495168628851E+001  0.121271669835768E+001 -0.206759903985562E+000 -0.231481603218531E+001
  0.537920986271528E-002  0.152597333928166E+002 -0.612353183931659E+000 -0.110156507975180E+001 -0.155241792114237E+001 -0.485972488388746E+000 -0.261992058882244E+001
  0.537920986271528E-002  0.938527417695661E+001  0.221779052031372E+000  0.779422070639209E-001  0.331213931402322E+000  0.213741165195313E+001  0.700446436359305E+000
  0.537920986271528E-002  0.938596246300766E+001 -0.355279826904631E+000 -0.114652353705708E+001 -0.581036996094927E+000  0.931309945311197E+000  0.160596497115709E+001
  0.537920986271528E-002  0.162853461076881E+002 -0.627717667850498E+000 -0.294890721001615E+001  0.573532878456248E+000 -0.113652300051112E+001  0.118889933029836E+001
  0.537920986271528E-002  0.938733296148854E+001 -0.678515980557035E+000  0.459664504331389E+000  0.122665131546650E+000  0.704848916142202E-001 -0.212943323955121E+001
  0.537920986271528E-002  0.152768979214217E+002  0.196978341319092E+001 -0.374624378884287E+000  0.405358977578196E+000  0.869619520582309E+000 -0.248491388121961E+001
  0.537920986271528E-002  0.945694942493920E+001 -0.122029298029195E+000  0.182730773685151E+001 -0.594809529949750E+000 -0.410974859905016E+000  0.119128048959306E+001
  0.537920986271528E-002  0.162472471355347E+002  0.101350004242463E+001 -0.402310536452264E+000  0.128163829340095E+001 -0.164733894852840E+001  0.255748546670805E+001
  0.537920986271528E-002  0.946235803016763E+001  0.335196992416066E+000  0.994801108743846E+000 -0.219493326211717E+000  0.140200998326490E+001 -0.147831175809864E+001
  0.537920986271528E-002  0.946690961981435E+001 -0.124097176955840E+001 -0.429112873246350E+000 -0.656146259907718E+000 -0.128334281816509E+001 -0.122642053665725E+001
  0.537920986271528E-002  0.946800494594158E+001  0.107373516957345E-001  0.190135520008868E+001  0.462946153894391E+000 -0.121039818950769E+001 -0.110446126326375E+000
  0.537920986271528E-002  0.894290979042693E+001 -0.491315053560206E+000  0.601107085317588E+000 -0.134957844527216E+001 -0.871904950551077E-001  0.153299335460257E+001
  0.537920986271528E-002  0.948052452876289E+001  0.892032820172405E+000  0.136109102836015E+001  0.546166115779126E+000 -0.175317504669576E+000  0.153037339973635E+001
  0.537920986271528E-002  0.161587860091123E+002  0.164134782080186E+001  0.167115521388469E+001  0.239986882077388E+001  0.792629686228339E+000  0.351019404061986E+000
  0.537920986271528E-002  0.949308464547511E+001 -0.152568568385140E+000 -0.444168749343195E+000  0.880224132573761E+000  0.913277057026640E+000  0.187149547157887E+001
  0.537920986271528E-002  0.949879883786042E+001  0.123206025268362E+001  0.122264552317963E+001  0.432541167547211E+000 -0.133536185888008E+000  0.145598204960622E+001
  0.537920986271528E-002  0.951446389730391E+001 -0.326711785309841E+000 -0.781410311701142E+000 -0.186392799874175E+000 -0.577893791710315E+000  0.206573496076873E+001
  0.537920986271528E-002  0.153477993055503E+002  0.102789275998305E+001  0.210926649423620E+001  0.161524069692191E+000 -0.183718151457717E+001 -0.150988340619302E+001
  0.537920986271528E-002  0.865609624664682E+001 -0.811657377763452E+000  0.499706564140141E+000 -0.903982093809549E+000 -0.128807171463710E+001 -0.105362836741496E+001
  0.537920986271528E-002  0.153876716867939E+002  0.306849230905669E+001  0.117237750416649E+001 -0.523069918337655E+000  0.134003996104670E+000  0.380580635884368E+000
  0.537920986271528E-002  0.161042221469856E+002  0.185219741530698E+001 -0.196097895068752E+001  0.415727149168761E+000  0.731440679333542E+000  0.198976307981884E+001
  0.537920986271528E-002  0.160937934404083E+002 -0.729036058094388E+000  0.977058421553807E+000 -0.416152106813236E+000 -0.302336871938414E+001  0.106421751770744E+001
  0.537920986271528E-002  0.153927672171066E+002 -0.201701446133905E+001  0.962170933402785E+000  0.297494269766199E+000  0.706404511868634E+000 -0.237696865921961E+001
  0.537920986271528E-002  0.951447756511858E+001 -0.895753799422267E+000 -0.163897468517199E+000  0.181579505545707E+001 -0.779933060423528E+000 -0.786559762931333E+000
  0.537920986271528E-002  0.160900257000055E+002  0.178368246040489E+001 -0.877516594467326E+000  0.177085102481544E+001 -0.119757306110944E+001 -0.184586451972313E+001
  0.537920986271528E-002  0.160778075279857E+002 -0.205982986604517E+001  0.762737511347105E+000 -0.170834967251688E+001  0.167126553903084E+001  0.117490256670554E+001
  0.537920986271528E-002  0.154074313926208E+002  0.400453999880301E+000  0.189806054475767E+001  0.265041499945224E+001 -0.439033240798636E+000  0.515584625702808E+000
  0.537920986271528E-002  0.952418285858029E+001  0.145437171136350E+001  0.110580059663499E+001 -0.747124280912839E+000  0.100848371979456E+001 -0.670671251136629E+000
  0.537920986271528E-002  0.952760937716915E+001  0.810442314919247E+000  0.169323274263190E+001 -0.421041964960359E+000  0.316633770770470E+000 -0.125102575379585E+001
  0.537920986271528E-002  0.160313739789062E+002  0.143982635017703E+001  0.308281848049666E+000 -0.796519347228700E+000  0.251789433526171E+001  0.165161878635064E+001
  0.537920986271528E-002  0.110753573343283E+002 -0.125843046320192E+001  0.184922545139474E+000  0.668171095058471E+000 -0.862963836454502E+000  0.202612876384663E+001
  0.537920986271528E-002  0.160060284798202E+002 -0.338983739243830E+000  0.149496110242088E+001 -0.401086204708883E+000 -0.265366224929848E+001  0.151402098291639E+001
  0.537920986271528E-002  0.154262364901572E+002 -0.785987894795252E+000 -0.119167924839144E+001 -0.387926485569999E+000  0.182324340791220E+001  0.239843695199968E+001
  0.537920986271528E-002  0.159985617843351E+002  0.245239565739462E+000 -0.199858838006445E+001 -0.168701379694734E+001  0.119932353793378E+001  0.187043164380403E+001
  0.537920986271528E-002  0.159958064297526E+002 -0.123780642752436E+001 -0.299731846858593E+000 -0.242298089496214E+001 -0.606605778981320E+000  0.199344895002090E+001
  0.537920986271528E-002  0.159935826085694E+002  0.119789993720148E+001 -0.264841751584712E+001  0.251127761537431E-001 -0.180677107852566E+001  0.343938709840971E+000
  0.537920986271528E-002  0.952985976083806E+001 -0.155226991578011E+001  0.117560131576885E+001  0.899405656526456E+000  0.577272939526821E+000 -0.659505906824690E+000
  0.537920986271528E-002  0.953631769690131E+001  0.385858518319732E+000  0.192459226096480E+001 -0.102539847119955E+001  0.686113390099104E+000  0.501278744011024E-002
  0.537920986271528E-002  0.154881354402645E+002  0.280614992075464E+001 -0.129156311296781E+001  0.446556487481198E+000  0.807693001478139E+000  0.965704568519582E+000
  0.537920986271528E-002  0.953806136472234E+001 -0.111723526877420E+001  0.374096935526456E+000 -0.104433185998829E+001 -0.297467420643008E+000 -0.167619375631287E+001
  0.537920986271528E-002  0.867117256135730E+001 -0.973314417492736E+000 -0.655069278979449E+000 -0.114411638223940E+001  0.231242907754647E+000 -0.133082060187457E+001
  0.537920986271528E-002  0.110809848071043E+002  0.436679606638372E+000 -0.152957294673582E+001 -0.208225954180991E+000 -0.783676805697195E+000 -0.193184837711343E+001
  0.537920986271528E-002  0.893266327735167E+001  0.390897993746957E+000  0.659676580997569E+000  0.190273726733859E+001 -0.452138040328934E+000 -0.598910790820961E+000
  0.537920986271528E-002  0.155679655701945E+002 -0.291484040600848E+000  0.214542059815484E+001 -0.174256570837537E+000  0.678573289584277E+000  0.249563403297417E+001
  0.537920986271528E-002  0.155711007160835E+002  0.938459682223348E+000 -0.930036632428545E+000 -0.219052327836385E+001  0.131566602150274E+001 -0.177056485256788E+001
  0.537920986271528E-002  0.955607048106425E+001 -0.717936406366646E+000  0.407188877205340E+000  0.156653467129736E+001 -0.277273726107275E+000  0.147741890717070E+001
  0.537920986271528E-002  0.155955236058892E+002  0.260659180529204E+001 -0.941138198345739E+000 -0.155349203633822E+001 -0.531258955031213E+000  0.102894668515657E+001
  0.537920986271528E-002  0.955693899188829E+001  0.186957291122903E+001  0.404235471954744E+000  0.599353945276779E+000 -0.234747803233311E+000  0.115010492083657E+001
  0.537920986271528E-002  0.155983668191797E+002 -0.520607067671396E+000 -0.176700295341126E+001  0.173741917381069E+000  0.189537601030330E+001  0.210267505708595E+001
  0.537920986271528E-002  0.892725530380084E+001  0.164620251506483E+000 -0.164350596269742E+001 -0.978701680087248E+000  0.534627755907626E+000 -0.891180687769959E+000
  0.537920986271528E-002  0.957515076585430E+001  0.961756844494502E+000 -0.207561575900627E+001  0.412210768558425E+000  0.104310721718880E+000  0.620657553096748E-002
  0.537920986271528E-002  0.958206681625632E+001 -0.680527874142007E+000 -0.199838755590026E+000 -0.112844258156970E+000  0.217345309232749E+001 -0.425704282880872E+000
  0.537920986271528E-002  0.156710538425398E+002 -0.363709256349242E+000 -0.605599383797658E+000 -0.956550072334593E+000  0.208229616596455E+001  0.239998263517247E+001
  0.537920986271528E-002  0.961650312154874E+001  0.102267010378768E+001  0.103279625417981E+001  0.753313297961044E+000  0.699782919704845E+000  0.151183564754836E+001
  0.537920986271528E-002  0.961722136105261E+001  0.110401846295799E+000 -0.885714033999944E+000 -0.793078208533286E+000  0.716189380694457E+000 -0.187549630140038E+001
  0.537920986271528E-002  0.141220073672676E+002  0.155050136623467E+001 -0.215309326736554E+001  0.156702901198040E+000  0.153448939280326E+001 -0.736051610827221E+000
  0.537920986271528E-002  0.961910938844298E+001  0.151044403770528E+000 -0.426645950677894E+000 -0.125909730973796E+001 -0.713185291582177E+000 -0.177740038282261E+001
  0.537920986271528E-002  0.110904122804565E+002  0.182915352513417E+001 -0.134013465638742E+001  0.723313620742541E+000 -0.108559134127645E+001 -0.292917765870791E+000
  0.537920986271528E-002  0.141006553058150E+002 -0.200428292105575E+001 -0.101654826180278E+001 -0.254718497783450E-001  0.104818714162854E+001  0.194669797803157E+001
  0.537920986271528E-002  0.140815905110449E+002 -0.220739287666612E+001  0.115832405819415E+001  0.129921748781972E+001  0.139642758548901E+001  0.261074127786797E+000
  0.537920986271528E-002  0.110928667176381E+002  0.310651840249910E+000 -0.698082946888827E-001  0.785680226138322E+000  0.140967822135731E+001 -0.205568627356898E+001
  0.537920986271528E-002  0.962099833091023E+001 -0.147351324276685E+001 -0.429761045771730E-001  0.148873921660073E+001  0.100273242889094E+001  0.254826483740615E+000
  0.537920986271528E-002  0.140508390114265E+002 -0.840073635370981E+000 -0.166242101497045E+001  0.147137217129976E+001  0.201961509285538E+001 -0.420159118519273E+000
  0.537920986271528E-002  0.867408822253270E+001 -0.233180487467801E+000 -0.177527891357370E+001  0.858329266318574E-001 -0.668391552266202E+000  0.923487146882031E+000
  0.537920986271528E-002  0.140396463438584E+002 -0.699897721009734E+000  0.222367546534935E+001  0.440464048072404E+000 -0.104014718890283E+001 -0.177988353653661E+001
  0.537920986271528E-002  0.867562703187670E+001  0.172331555583999E+001 -0.922182860768962E+000  0.113307644711322E+000  0.801113241023186E+000  0.199026274550920E+000
  0.537920986271528E-002  0.139886266754198E+002 -0.281055147091633E+001 -0.599796389099515E+000  0.437493795894104E+000  0.562010933092195E+000  0.103017352571582E+001
  0.537920986271528E-002  0.139837583095815E+002  0.278483643915752E+001  0.753342557585094E+000 -0.825643891447393E+000 -0.724026916165524E+000 -0.542088280550636E+000
  0.537920986271528E-002  0.139824287088498E+002 -0.164977375278400E+001 -0.164234298700445E+001  0.172320093282171E+001  0.752134862649086E+000  0.931181876486017E+000
  0.537920986271528E-002  0.963286342590662E+001  0.385109894474867E+000  0.177056617296772E+001 -0.525503455795234E+000 -0.133183565683398E+001  0.372226181821296E+000
  0.537920986271528E-002  0.139633809746491E+002  0.292104777745216E+001 -0.577964594067556E+000 -0.248192580921740E+000  0.527048083824694E+000  0.772192820272997E+000
  0.537920986271528E-002  0.892218535697788E+001  0.136372577456816E+001 -0.103143761536305E+001  0.101139234878040E-001 -0.133048548207132E+001 -0.259081284529459E+000
  0.537920986271528E-002  0.963837175239462E+001 -0.685758060549229E+000 -0.162424616377678E+001  0.302008224532658E+000 -0.142572629133286E+001  0.494844233909444E+000
  0.537920986271528E-002  0.139549447004435E+002  0.295302957279909E+000 -0.337410204907613E+000  0.282733265264479E+001 -0.101774427402691E+001 -0.750416609982202E+000
  0.537920986271528E-002  0.868005589536038E+001  0.104026600485619E+001 -0.890481321029296E+000  0.649640016113223E+000 -0.650606854260316E+000  0.134106947214770E+001
  0.537920986271528E-002  0.138973206916097E+002  0.230858325822972E+001 -0.157686501700259E+000  0.980362230340640E+000  0.184885565923232E+001 -0.486297679671970E-001
  0.537920986271528E-002  0.891398347875443E+001  0.741490012216602E+000  0.454383839243263E+000  0.112293674116951E+001  0.120642914055593E+001 -0.113141344273208E+001
  0.537920986271528E-002  0.965020388318962E+001 -0.393120042368189E+000 -0.487916185161847E+000 -0.147913824012382E+001  0.801243913987260E+000  0.150552309039441E+001
  0.537920986271528E-002  0.138338768766381E+002  0.663075752734350E+000  0.695484501392883E+000 -0.231816105236802E+001 -0.346514182265375E+000 -0.180427525476099E+001
  0.537920986271528E-002  0.966432410584970E+001 -0.115415187871403E+001  0.140171501871362E+001  0.776701036075428E+000 -0.195945333329667E+000 -0.125085438281309E+001
  0.537920986271528E-002  0.868104454745568E+001 -0.106591912605146E+001 -0.138317485363091E+000 -0.376213146232649E+000 -0.177665432630398E+001  0.257944796258909E+000
  0.537920986271528E-002  0.110982293234642E+002 -0.209516576442159E+001  0.115682052852453E+001 -0.688113868045872E+000  0.167061940166137E+000 -0.841254318068382E+000
  0.537920986271528E-002  0.138142518389676E+002 -0.237089874495071E+001  0.879794161746794E-002 -0.133888270670996E+001  0.809772664138706E+000 -0.125837916127950E+001
  0.537920986271528E-002  0.137984469719203E+002  0.201239062817297E+001  0.145254123111443E+001 -0.263321825638929E+000  0.103160192485216E+001  0.153106407290215E+001
  0.537920986271528E-002  0.137929426916891E+002 -0.168568733704268E+001 -0.473790684984498E+000 -0.115894883838477E+001  0.148174968637221E+001 -0.173983388409963E+001
  0.537920986271528E-002  0.869318815616328E+001 -0.137386018901033E+001 -0.100515269382185E+000  0.377982745054217E+000 -0.124969665239483E+001  0.964273584801019E+000
  0.537920986271528E-002  0.111089368572282E+002  0.706582587341755E+000 -0.159497106932728E+001  0.659447072176826E-001 -0.196992944571413E+001  0.140063107472212E+000
  0.537920986271528E-002  0.137341573668083E+002  0.466035360618661E+000  0.188891737740601E+001  0.648883935039021E+000 -0.995228299851627E+000 -0.209195435607266E+001
  0.537920986271528E-002  0.137230180866179E+002 -0.103338226424285E+001  0.127184772655958E+001  0.987561167797637E+000 -0.200174384291118E+001 -0.137627405603336E+001
  0.537920986271528E-002  0.966864001146303E+001 -0.446139209184553E+000  0.145412642737414E+001  0.477333206335405E+000 -0.159333083590154E+001 -0.653765413028214E+000
  0.537920986271528E-002  0.967030365910620E+001  0.854582699506517E+000 -0.254353956238013E+000 -0.181741951293798E+001  0.110891986825601E+001  0.425937061793812E+000
  0.537920986271528E-002  0.136722857733302E+002 -0.822845238556282E-001  0.269029261493306E+001  0.131280738072421E+001 -0.730989457406747E+000  0.942076315947258E-001
  0.537920986271528E-002  0.136594636068922E+002  0.296036625858430E+000 -0.628064069615577E+000 -0.138441878507132E+001 -0.180322688442785E+001 -0.196162230956739E+001
  0.537920986271528E-002  0.869524069869831E+001 -0.384378099054200E+000  0.690087016057336E+000  0.554147044591640E+000 -0.187806464671650E+001 -0.275520468808755E+000
  0.537920986271528E-002  0.136389291437442E+002 -0.822563131605721E+000 -0.880354958152969E+000  0.214180733913784E+001 -0.128884386513721E+001 -0.133329674353083E+001
  0.537920986271528E-002  0.968214746388010E+001 -0.885406385571726E+000 -0.128568385129376E+001 -0.102197917996536E+001  0.142612438839843E+001 -0.760987673859059E-001
  0.537920986271528E-002  0.136342623936800E+002  0.113283690653456E+001  0.532308390346902E+000 -0.928291265310010E+000 -0.257138048281125E+001 -0.657808225001673E+000
  0.537920986271528E-002  0.136108765059986E+002 -0.228632995322297E+001 -0.151539733473700E+000  0.586816121470093E+000  0.195188421728924E+001 -0.212710152852247E+000
  0.537920986271528E-002  0.135583925844441E+002 -0.153086739090438E+001 -0.399178983502599E+000 -0.206263800713266E+001  0.862832300483002E+000  0.137672867148480E+001
  0.537920986271528E-002  0.135572854409066E+002 -0.131692948711372E+001 -0.726154966515347E+000 -0.103341561124133E+001 -0.226295809420426E+001  0.972418210891771E+000
  0.537920986271528E-002  0.135317935079032E+002  0.131613374930760E+001  0.123253100740550E+001 -0.234607888955682E+000 -0.112106741462004E+001 -0.219259275174651E+001
  0.537920986271528E-002  0.135253865211544E+002 -0.263063944967450E+001  0.107901421543360E+001 -0.466821233963575E+000 -0.100679169383311E+001 -0.219414123715898E+000
  0.537920986271528E-002  0.968735241939529E+001 -0.999942938406687E+000  0.150862169036346E+001 -0.724959460389397E+000 -0.504175811126327E+000  0.121268745933632E+001
  0.537920986271528E-002  0.969400700500062E+001 -0.483427849568883E+000 -0.186616342806996E+000  0.111658731272877E+001 -0.623521696802539E+000 -0.190493452212997E+001
  0.537920986271528E-002  0.869803169575516E+001 -0.522404849862212E-003 -0.474579864286109E+000 -0.634843484066688E+000  0.650741301903617E+000 -0.186685781222650E+001
  0.537920986271528E-002  0.969545607103105E+001  0.136670963902532E+000 -0.210529318568633E+001 -0.935779474495907E+000  0.440104834858295E+000  0.118260041772369E+000
  0.537920986271528E-002  0.971634268752732E+001  0.144227666817088E+001 -0.154200208590968E+001  0.490253384262279E+000 -0.631017111256946E+000 -0.677290557014859E+000
  0.537920986271528E-002  0.134427208898407E+002 -0.711623060963795E-001 -0.192872469185166E+001  0.652768259321884E+000 -0.141841259470504E+001 -0.176593329346020E+001
  0.537920986271528E-002  0.972549577455466E+001 -0.794222746135013E+000  0.525748565079217E+000 -0.144816974744300E+001  0.149235445299085E+001  0.576905734671227E+000
  0.537920986271528E-002  0.974209167978779E+001 -0.103802527200580E+001 -0.557524484431681E+000 -0.661594182636725E+000 -0.193296370462877E+001 -0.136195906278769E+000
  0.537920986271528E-002  0.870342548371106E+001  0.104118057594861E+001  0.136535649570220E+001 -0.122290849233900E+001 -0.183305689989351E+000 -0.254768879729541E+000
  0.537920986271528E-002  0.974535021843001E+001  0.664908057194981E+000 -0.673255197131356E+000 -0.104171565013292E+001 -0.129356889497333E+001  0.138936178108591E+001
  0.537920986271528E-002  0.134053518015806E+002  0.182117677681744E+001 -0.140573448294628E+001 -0.463667816578881E+000 -0.191466962129324E+001  0.265467732232619E+000
  0.537920986271528E-002  0.133918650279179E+002 -0.119917101658660E+001  0.148742621455366E+001  0.124764101151445E+001  0.293743367283294E+000  0.198427999657133E+001
  0.537920986271528E-002  0.111458006017498E+002  0.165060637144523E+001 -0.263930577716114E+000  0.791139186187454E+000 -0.654193806107034E+000 -0.177104836682805E+001
  0.537920986271528E-002  0.133673647292427E+002  0.319843533003011E+000  0.355746256960783E+000 -0.237877285226835E+001  0.175187864454302E+001 -0.499713501394757E+000
  0.537920986271528E-002  0.975390553410312E+001  0.835940881913833E+000 -0.189697524784939E+001 -0.505147959264568E+000 -0.873053750393478E+000 -0.527294206628008E+000
  0.537920986271528E-002  0.975425546370495E+001  0.599000805664611E+000  0.883512445045597E+000 -0.154428416591441E+001 -0.878481507291160E+000  0.113892893601615E+001
  0.537920986271528E-002  0.133274365202960E+002 -0.121830860429289E+001 -0.218068814681706E+000 -0.401584617261656E+000  0.950741732386896E+000  0.256305868399764E+001
  0.537920986271528E-002  0.976381363217916E+001 -0.995009171708272E-001  0.662039149344032E+000 -0.114688728705170E+001 -0.643873313731160E+000  0.185055053379662E+001
  0.537920986271528E-002  0.977337315226026E+001 -0.199872997923862E+000  0.514642815125487E+000  0.511600376475345E+000  0.210381454954749E+001  0.787171717465288E+000
  0.537920986271528E-002  0.133187843010830E+002  0.748577020740070E+000 -0.173156553975002E+001 -0.150798657991645E+001 -0.166448227327399E+001 -0.744591143162064E+000
  0.537920986271528E-002  0.133162827013853E+002  0.138842411943089E+001 -0.181326609005802E+001 -0.526969014693975E+000 -0.618627005944236E+000  0.181082156623900E+001
  0.537920986271528E-002  0.977605574544198E+001 -0.172301414597685E+001  0.697328219595035E+000 -0.133911902465604E+001 -0.393598212971114E-002 -0.605474446434162E+000
  0.537920986271528E-002  0.891022518196445E+001 -0.935024298333646E+000  0.131076541569214E+001  0.467897482146417E+000 -0.138349729880071E+001 -0.153945269500163E+000
  0.537920986271528E-002  0.132949989085191E+002 -0.212420960154110E+001  0.794760236907389E+000 -0.160152653204628E+001 -0.808205579779070E+000 -0.878549007233050E+000
  0.537920986271528E-002  0.132839978723460E+002  0.171761691269858E+001 -0.103779577787151E+000 -0.590617854704846E+000 -0.517753857446086E+000  0.235477483268982E+001
  0.537920986271528E-002  0.978510903202444E+001 -0.280564553234047E+000  0.713147018936067E+000  0.212050451288261E+001  0.733905695738895E+000  0.387316479879720E-001
  0.537920986271528E-002  0.981030203258561E+001 -0.132091418406507E+001 -0.103090938403686E+001  0.561524928843527E+000 -0.154130907926681E+001  0.388088748041997E+000
  0.537920986271528E-002  0.132502134616203E+002  0.159673209942270E+000 -0.100194134895425E+001 -0.239185377960951E+001  0.105810497773366E+001  0.110413949346966E+001
  0.537920986271528E-002  0.982850043306732E+001 -0.120966986305484E+001 -0.341659402540542E+000 -0.907839151545259E+000  0.144687228097251E+001 -0.108152669531944E+001
  0.537920986271528E-002  0.982873907732682E+001 -0.792419620207618E+000 -0.106066381778464E+001 -0.263204542998810E+000 -0.425031601577844E+000 -0.191434511041193E+001
  0.537920986271528E-002  0.870492009229125E+001 -0.126393679432259E+001  0.103349728913245E+001 -0.127909687563660E+001 -0.558523819548440E-001 -0.488776152083013E+000
  0.537920986271528E-002  0.131807957863621E+002 -0.133821620764411E+001 -0.260224157264188E+001  0.577556354143081E+000  0.334948749299985E+000  0.106738773555141E+000
  0.537920986271528E-002  0.983025123599995E+001 -0.131755035787017E+000 -0.126981901641719E+001 -0.357784036665440E+000 -0.732240770050435E+000 -0.183714690674074E+001
  0.537920986271528E-002  0.131470363519718E+002  0.150445940064404E+001  0.716144666547940E+000 -0.364142058140373E+000 -0.192668594242500E+001 -0.153782317845370E+001
  0.537920986271528E-002  0.131460336674334E+002 -0.723369860542983E+000 -0.169496620519063E+001  0.130953300210995E+001 -0.191946973994851E+001  0.435272002814020E+000
  0.537920986271528E-002  0.131224880963989E+002  0.110889503541175E+001  0.115370232000715E+001 -0.187573432050374E+001  0.116336767388678E+001 -0.123646693241738E+001
  0.537920986271528E-002  0.983630430226897E+001  0.300662288249918E+000 -0.135473866305956E+001  0.493343108718504E+000  0.413582776453096E+000  0.182619679023920E+001
  0.537920986271528E-002  0.131052526135197E+002  0.500735510894665E+000  0.514768509307244E+000 -0.544098535460833E-001 -0.219957312975063E+001 -0.189401445751194E+001
  0.537920986271528E-002  0.131021597645325E+002 -0.717639060540800E-001 -0.193644197031277E+001 -0.204626505071164E+001  0.980984565135762E+000  0.191086457413203E+000
  0.537920986271528E-002  0.130790056202402E+002 -0.640331878854888E+000 -0.103445886590908E+001  0.837841916914595E+000  0.239440561544345E+001  0.100127989991408E+001
  0.537920986271528E-002  0.870582315311464E+001 -0.873988103218820E+000  0.926081098176234E+000  0.118592691567344E+001 -0.880686871641625E+000 -0.860902398661092E+000
  0.537920986271528E-002  0.984261699428434E+001  0.733761954559421E+000 -0.115254609253645E+001 -0.574058274628841E-001 -0.621994875551986E+000  0.185054533739073E+001
  0.537920986271528E-002  0.130493416631629E+002 -0.109978216578686E+001  0.181077822784028E+001 -0.190402277079541E+001 -0.190037420126888E+000  0.859260923630007E+000
  0.537920986271528E-002  0.130415989349962E+002  0.193682566001608E+001 -0.153253603563531E+001  0.577784747635299E+000 -0.145687415505889E+001  0.569354271059706E+000
  0.537920986271528E-002  0.111476421707182E+002 -0.322413843316740E+000 -0.541257892112474E+000  0.141425131075708E+001  0.147532593641353E+001 -0.155334516351745E+001
  0.537920986271528E-002  0.985211304813592E+001 -0.413056683713662E+000  0.103360183868922E+000 -0.949059939225481E-001  0.541590879174297E+000 -0.228195733429714E+001
  0.537920986271528E-002  0.130266740264448E+002 -0.227066298334153E+001 -0.954167545877518E+000  0.154834519443768E+001  0.504438289905030E+000 -0.383849338327706E+000
  0.537920986271528E-002  0.986770710475945E+001  0.124289867826517E+001 -0.739823787192125E+000 -0.901700189861046E+000 -0.118386714266379E+001 -0.118313537155738E+001
  0.537920986271528E-002  0.111483918829398E+002  0.874786129564271E+000 -0.500157670507701E+000  0.240325546316722E-002  0.202507740180322E+001 -0.136780201902063E+001
  0.537920986271528E-002  0.986982308220088E+001 -0.848471021545418E+000  0.122765535041115E+001 -0.634403432969015E+000 -0.170057415422445E+001 -0.432672376862788E+000
  0.537920986271528E-002  0.129977275247062E+002 -0.227633537243216E+000  0.123718935898387E+001  0.255167704837081E+001 -0.713864712034841E+000  0.483174511173980E+000
  0.537920986271528E-002  0.871489514172438E+001  0.398152492178097E+000 -0.149821646691805E+001  0.331625743442224E+000 -0.130708422458252E+001 -0.576294678233289E+000
  0.537920986271528E-002  0.129930724860796E+002  0.156194777732027E+001  0.851909599040601E+000  0.596659892697568E+000  0.154154212458899E+001  0.171293015610791E+001
  0.537920986271528E-002  0.129880039256855E+002  0.158751566220019E+001  0.790693493459072E+000 -0.565888485759585E-001  0.219767895822934E+001 -0.921113376953514E+000
  0.537920986271528E-002  0.129849747228136E+002 -0.700865052200890E+000  0.154381314413514E+001 -0.195048751269461E+001 -0.427823044030334E+000  0.140064734687407E+001
  0.537920986271528E-002  0.129779899570710E+002 -0.129238661637045E+001  0.655202092046073E+000  0.401468841604596E+000  0.207409641823875E+001  0.150140835005659E+001
  0.537920986271528E-002  0.871506026303630E+001 -0.121588657967289E+001 -0.602044506436510E+000  0.437716270464383E+000  0.126630094081653E+001 -0.958098169087573E+000
  0.537920986271528E-002  0.129565763609218E+002 -0.671818977291446E+000  0.204929631187158E+000  0.177094416450906E+001 -0.196537954871950E+001  0.114154398586936E+001
  0.537920986271528E-002  0.129516777951907E+002 -0.384667355004392E+000 -0.160435479715920E+001 -0.201088226415314E+001  0.110957616553980E+001 -0.890949474252598E+000
  0.537920986271528E-002  0.987241926244367E+001 -0.722636403998873E+000  0.827912399214918E-001  0.161154309754135E+000  0.186902794494079E+001  0.128956137395757E+001
  0.537920986271528E-002  0.987403889583794E+001 -0.183761699214520E+001 -0.419249188945201E+000 -0.109470871951449E+001  0.936427385658011E+000 -0.291534871787882E+000
  0.537920986271528E-002  0.890747200775790E+001  0.297035981520347E+000 -0.117898986378004E+001 -0.483210710367545E+000 -0.744140970252496E-001 -0.174041308118729E+001
  0.537920986271528E-002  0.987871397203462E+001 -0.592290288370660E+000 -0.905603276004134E+000 -0.154882946049330E+001  0.139997898620593E+001  0.433380018448720E+000
  0.537920986271528E-002  0.889951057451064E+001 -0.201409786824902E+000  0.105192297829317E+001 -0.796585939836412E+000 -0.886104965941846E+000  0.147360603856068E+001
  0.537920986271528E-002  0.129019837300254E+002  0.170770191296753E+001 -0.161927101755562E+001  0.747389794621376E+000 -0.116824770473267E+001  0.113099437687960E+001
  0.537920986271528E-002  0.871854674107908E+001  0.680740936492073E+000  0.101449429208732E+001 -0.100730641501152E+001  0.798405032323350E+000  0.118855637119002E+001
  0.537920986271528E-002  0.872130895851936E+001 -0.864005792023853E+000  0.604402794690572E+000 -0.485780502902459E+000 -0.178935610898202E+001  0.102788311403228E+000
  0.537920986271528E-002  0.872244343073263E+001 -0.708019322880695E+000  0.754307979417626E+000  0.108427444783214E+001  0.138936566791244E+001 -0.620505206283855E+000
  0.537920986271528E-002  0.128570354508310E+002 -0.127806619685316E+001  0.456052009769484E+000  0.203382654921144E+001  0.164404379542476E+001  0.122929187743632E+000
  0.537920986271528E-002  0.989700859119456E+001 -0.470403625790036E+000  0.250133063764912E+000  0.136062929078292E+001 -0.218024263464135E+000  0.188498250154424E+001
  0.537920986271528E-002  0.872323515333725E+001  0.207674837433659E+000  0.805986452748884E+000 -0.162500866658559E+001 -0.284958007100117E+000  0.107120545555203E+001
  0.537920986271528E-002  0.128320213655021E+002 -0.155515469932943E+001  0.140790163333150E+001  0.854029593943993E+000  0.170779869166474E+001  0.790081328730150E+000
  0.537920986271528E-002  0.128303331564281E+002 -0.339457395311023E+000  0.172129498825652E+001  0.193443758099840E+001  0.630180532355149E+000 -0.120495325450209E+001
  0.537920986271528E-002  0.128238201258963E+002  0.160815979119362E+001 -0.322844301482530E+000  0.115525490668878E+001 -0.124173093367266E+001  0.175947360448809E+001
  0.537920986271528E-002  0.989928422027567E+001  0.469639494544768E+000 -0.973553504482315E+000 -0.162767701594396E+001 -0.114521772237469E+001 -0.780322783564639E+000
  0.537920986271528E-002  0.127925056926647E+002  0.115126535231545E+001  0.459613426933318E+000 -0.176675960664421E+001 -0.199329909060438E+001 -0.342254367423767E-002
  0.537920986271528E-002  0.990158045570745E+001  0.784385239120282E+000 -0.166351781459358E+001  0.606054360042366E+000 -0.134278135928420E+001 -0.433022255540910E+000
  0.537920986271528E-002  0.111685604678547E+002  0.756540380927230E+000 -0.125901504164008E+001 -0.123674857321987E+001  0.714619201437402E+000  0.167621711465267E+001
  0.537920986271528E-002  0.889000210108328E+001 -0.269418950158337E+000  0.127695524456450E+001 -0.244244645882141E+000  0.262199160359648E+000  0.170212813680299E+001
  0.537920986271528E-002  0.127603964295419E+002  0.356360155640671E+000  0.605827188118262E+000  0.135136791337360E+001  0.407641545590359E+000  0.247241857848487E+001
  0.537920986271528E-002  0.991612680681354E+001  0.177627651386203E+001 -0.128642165900991E+001 -0.164736108379168E+000  0.917889608521581E+000 -0.274356987488632E+000
  0.537920986271528E-002  0.127397995914482E+002 -0.550566789141502E+000 -0.205422996729239E+000 -0.687952329661217E-001  0.223711415359939E+001  0.179552440287442E+001
  0.537920986271528E-002  0.127156603952877E+002  0.215082460766820E+000  0.435518063344764E-001  0.720148672303080E+000 -0.846175826251672E+000 -0.269661245610941E+001
  0.537920986271528E-002  0.992411825043013E+001 -0.200765341493530E+001 -0.267899583799867E+000 -0.974233237131472E+000  0.807779169805520E+000  0.242654998916171E+000
  0.537920986271528E-002  0.992753875757266E+001 -0.311428254353464E+000 -0.438804571360313E+000  0.860781962441461E+000 -0.871642941028530E+000  0.199402556445012E+001
  0.537920986271528E-002  0.126582924615477E+002  0.595427696745343E-001 -0.194609595952534E+001  0.978073998074763E+000  0.149345240604245E+001 -0.123258752577499E+001
  0.537920986271528E-002  0.126580091472233E+002  0.116997765470304E+000 -0.105585528389240E+001  0.266744172714703E+001 -0.494208205755225E+000  0.940551874572790E-001
  0.537920986271528E-002  0.126566675043324E+002 -0.185844295017067E+001 -0.197233440404596E+001 -0.651592904602936E+000  0.632885226847856E+000 -0.571384710411996E+000
  0.537920986271528E-002  0.874319335841977E+001 -0.989910489132544E+000 -0.173860512836264E+000 -0.121230058917189E+001  0.133309191672912E+001 -0.570157464320312E+000
  0.537920986271528E-002  0.126488742859471E+002  0.133091296194574E+001  0.151233020181733E+001  0.166620349399231E+001 -0.733239758794717E+000  0.105611122243223E+001
  0.537920986271528E-002  0.994137965483511E+001 -0.153013235958894E+001 -0.139380961032340E+001  0.540244866591065E+000 -0.513136966368678E+000 -0.970071405663394E+000
  0.537920986271528E-002  0.126368641695727E+002 -0.567805135353894E+000  0.352197040913651E+000 -0.520769076927706E+000 -0.271862389967189E+001  0.605925416146696E+000
  0.537920986271528E-002  0.126182269469103E+002 -0.965613071264550E+000 -0.236599381140711E+000  0.367361339578514E-001  0.292203947088600E+000 -0.271697434533316E+001
  0.537920986271528E-002  0.126144131337130E+002 -0.168740214268990E+001  0.131963879127424E+001  0.144796153000369E+001  0.118819050056631E+001 -0.596736585261758E+000
  0.537920986271528E-002  0.874614259418809E+001  0.152823292214009E+001 -0.946725266531049E+000 -0.278318734567888E+000 -0.108159319576141E+001 -0.325416729028916E+000
  0.537920986271528E-002  0.126104127692136E+002  0.858163988024552E+000  0.159506251944442E+001  0.628959438784547E+000 -0.362405228677964E-002 -0.218471576998420E+001
  0.537920986271528E-002  0.126074057640098E+002 -0.111390757734732E+000  0.117666701872641E+001  0.201253991127050E+001 -0.156164920593302E+001  0.748485577929522E+000
  0.537920986271528E-002  0.994745177144827E+001 -0.615978932256339E+000  0.253678101017245E-001  0.143335142415615E+001 -0.110885600930213E+000  0.182741059593209E+001
  0.537920986271528E-002  0.996257092481504E+001 -0.158803949964476E+001  0.880495303467725E-001  0.605756728184477E+000  0.151334083448072E+001 -0.783996342220412E+000
  0.537920986271528E-002  0.996520474424406E+001 -0.226801238735460E+000  0.104821295415197E+001  0.279509946091038E+000 -0.202398864017497E+001  0.692244845883828E+000
  0.537920986271528E-002  0.888688352844187E+001 -0.895022229348415E+000  0.137924792917181E+000  0.135961775402052E+001 -0.143221721935739E+001 -0.763681577292941E-001
  0.537920986271528E-002  0.875270114324750E+001  0.114839561660111E+001  0.694415665821861E+000  0.377878465928021E+000 -0.693356574665053E+000 -0.147206768407924E+001
  0.537920986271528E-002  0.999049920352092E+001 -0.182170210260225E+001 -0.412244047244332E-001 -0.512205030436418E+000  0.504107217407600E+000 -0.141158291594136E+001
  0.537920986271528E-002  0.111893066189967E+002  0.134159907859100E+001 -0.111062641048549E+001  0.524264367714533E-001 -0.521969697724288E+000  0.192861862951477E+001
  0.537920986271528E-002  0.999556013940971E+001  0.956917278601388E-002 -0.690863596664610E+000  0.173634679136980E+001  0.142392566029912E+001  0.560851854111970E+000
  0.537920986271528E-002  0.100050104605896E+002 -0.119557956449905E+001 -0.117328546617746E+001  0.347029125659112E+000 -0.170726286780372E+001  0.516592066844597E-001
  0.537920986271528E-002  0.124408441860645E+002 -0.149286819635681E+001 -0.229962713937748E+001  0.831068023929600E+000 -0.181237437718594E+000 -0.198055275249359E+000
  0.537920986271528E-002  0.100072029362610E+002 -0.176840463403699E+001 -0.110182743645064E+001 -0.995236735334632E+000  0.662027820470005E+000 -0.275663743535627E+000
  0.537920986271528E-002  0.875576099033058E+001  0.642701954026381E+000 -0.857636004972770E+000 -0.952571480950793E+000 -0.159316639497262E+001  0.206710009073223E-001
  0.537920986271528E-002  0.100091866358247E+002  0.913659700976654E+000 -0.200770317272718E+001 -0.657518313358986E+000  0.733933045219535E+000 -0.106750722074025E+000
  0.537920986271528E-002  0.124094794605719E+002 -0.124568115728714E+000  0.149598101642008E+001 -0.375708607269709E+000 -0.144970365523449E+001  0.193702054845152E+001
  0.537920986271528E-002  0.100093244136020E+002  0.210400949389111E-002 -0.817391307077946E+000 -0.338891440105110E+000 -0.218096679046758E+001  0.555491760185720E+000
  0.537920986271528E-002  0.124056609690104E+002  0.407302627684803E+000 -0.145385031836808E+001 -0.955324508891533E+000  0.270602110186198E+000 -0.223138019575782E+001
  0.537920986271528E-002  0.100128599389845E+002  0.188175677608068E+001 -0.125089730347846E+001  0.166228662009551E+000 -0.419097103783435E+000  0.736665573655924E+000
  0.537920986271528E-002  0.123811714135369E+002  0.231189461333926E+001 -0.624264311212958E+000 -0.465962520894708E+000  0.981874570409355E+000  0.114203907300684E+001
  0.537920986271528E-002  0.100297986782227E+002 -0.418822073658068E+000  0.175229419619902E+001 -0.110978224854956E+001  0.257217414020002E+000 -0.115105063685730E+001
  0.537920986271528E-002  0.100309318974001E+002  0.647957794061634E+000  0.110411435735176E+001  0.203115610135976E+001  0.302821782116796E+000 -0.116452340736355E+000
  0.537920986271528E-002  0.100358601810167E+002 -0.117210643762107E+001  0.113994578539573E+001  0.121525873798151E+001  0.795261975695280E+000 -0.104503496740973E+001
  0.537920986271528E-002  0.100374223433431E+002  0.168695139721733E+001 -0.930796550799696E+000 -0.109622885049021E+001  0.977243225673179E+000  0.857688760069584E-001
  0.537920986271528E-002  0.100401339155482E+002  0.138343468216127E+001 -0.108065560125052E+001  0.912102446193950E+000  0.198294816825873E+000 -0.138781027794443E+001
  0.537920986271528E-002  0.100535587731315E+002  0.803656371415726E+000 -0.150461731129105E+001  0.424718679595117E+000 -0.166876270470726E+001  0.132326271135295E+000
  0.537920986271528E-002  0.100594554383303E+002 -0.866552749332348E+000  0.159163962948281E+001  0.119988098668134E+000 -0.160199967974355E+001  0.182395587030031E+000
  0.537920986271528E-002  0.877251244600377E+001  0.112355974310296E+001 -0.119521964116124E+001  0.966993745262017E+000 -0.571374983959502E+000  0.811709856086370E+000
  0.537920986271528E-002  0.100622742516821E+002 -0.135601054159162E+001  0.667224128274626E+000  0.455451488876488E+000 -0.944898015534895E+000 -0.158647297928922E+001
  0.537920986271528E-002  0.100705232884864E+002  0.155035133187163E+001 -0.119962592829791E+001  0.195243666655998E+000  0.118118593861433E+001 -0.795835764796915E+000
  0.537920986271528E-002  0.122943275211403E+002  0.537876278103842E+000 -0.596910670446649E+000 -0.421820251996015E-001  0.885491332763658E+000  0.258876095179232E+001
  0.537920986271528E-002  0.112026690262485E+002 -0.736409927984782E+000  0.167701377157948E+001 -0.172479050091273E+001 -0.142628102629185E+000  0.831620354201395E+000
  0.537920986271528E-002  0.100721066206471E+002 -0.649737195282198E+000 -0.721841496878325E+000 -0.811191350006808E+000 -0.181243096080017E+001 -0.101232349779074E+001
  0.537920986271528E-002  0.100841156739168E+002  0.452064027441143E+000 -0.724039868454883E+000  0.156005530566485E+001 -0.111497613943564E+001 -0.123183558835106E+001
  0.537920986271528E-002  0.100911686349341E+002  0.148250372532719E+001 -0.821550187598501E+000  0.897145787080563E+000  0.138531371945179E+001 -0.577308557946223E+000
  0.537920986271528E-002  0.122321097857926E+002  0.205537199442025E+001 -0.254324777258485E+000 -0.175766908369847E+001  0.678752822318506E+000 -0.481260702215518E+000
  0.537920986271528E-002  0.100929284316375E+002  0.185850412445672E+000  0.190903552554808E+001  0.162881901577903E+000 -0.136650153152158E+001 -0.599130766684500E+000
  0.537920986271528E-002  0.122155452419399E+002 -0.177267015204638E+001 -0.298660078752088E+000  0.288781521337148E+000  0.445844773972872E+000  0.213088216682027E+001
  0.537920986271528E-002  0.122041604231941E+002  0.119082013137114E+001  0.822781670142624E+000 -0.279442519481266E+000 -0.150636632925735E+001 -0.189756521064549E+001
  0.537920986271528E-002  0.122007054402421E+002  0.113651042482465E+001 -0.166947920198192E+001  0.134525350958285E+001  0.146649442647304E+001  0.204691917057644E-001
  0.537920986271528E-002  0.879093603441798E+001  0.959650069853134E+000 -0.131763690782909E+001 -0.339812529527868E+000 -0.119335921839999E+001  0.658107274450641E+000
  0.537920986271528E-002  0.121564845334819E+002 -0.141925503096627E+001 -0.378316688545597E+000 -0.239024310156647E+001  0.348665794075485E+000 -0.555829133471941E-001
  0.537920986271528E-002  0.121561190775959E+002  0.392935703649878E+000 -0.392488259287969E+000 -0.155323611472529E+001  0.228479310964661E+001 -0.231721388336125E+000
  0.537920986271528E-002  0.121546683943397E+002  0.117206310857386E+001  0.182044014641145E+001 -0.131452558540749E+001  0.293267251381723E+000  0.122139025247595E+001
  0.537920986271528E-002  0.100975814583100E+002 -0.106692181358142E+001 -0.193633626851623E+001  0.542211476378486E+000 -0.421390382518591E+000 -0.759698114201202E+000
  0.537920986271528E-002  0.101001593283101E+002  0.126018825345213E+001  0.529976643417156E+000  0.870299465163600E+000  0.150342810825234E+001  0.102583411082406E+001
  0.537920986271528E-002  0.101034977602049E+002 -0.648382409430830E+000 -0.114415601605724E+001 -0.664043560905428E+000  0.707140241622561E+000  0.180882477239708E+001
  0.537920986271528E-002  0.121452566373035E+002 -0.728016411153813E+000  0.139811067357603E+001  0.224357233390211E+001 -0.508670652651346E+000 -0.454989937889908E+000
  0.537920986271528E-002  0.101062385613655E+002 -0.237765639967696E+000  0.174684742189078E+001 -0.949177779301769E+000  0.133990427745091E+001 -0.375221833149466E+000
  0.537920986271528E-002  0.121115051042485E+002 -0.836308821329079E+000  0.209648153106110E+000 -0.193047170321154E+001 -0.180694829592200E+001  0.463896947125914E+000
  0.537920986271528E-002  0.888269075667660E+001 -0.549433633581943E+000  0.323186474055526E+000 -0.183211152497097E+001  0.965381892339902E+000  0.163132801844510E+000
  0.537920986271528E-002  0.879794637548314E+001 -0.500377123545976E+000  0.202322740832991E+001 -0.840072558494507E-001 -0.362861318497307E-001 -0.533469088674709E+000
  0.537920986271528E-002  0.120950303540519E+002 -0.163415473978524E+001  0.172830607565217E+001  0.103849514172557E+001 -0.104783091308064E+001  0.316145812295372E+000
  0.537920986271528E-002  0.101130780254333E+002  0.676400381355910E+000  0.152678172662426E+001 -0.163531568066777E+001  0.486868346307671E+000  0.502038996274791E+000
  0.537920986271528E-002  0.101137553993948E+002  0.104402806267161E+001 -0.575859183125966E+000 -0.167768501851142E+001 -0.552301928713345E+000 -0.118799232751482E+001
  0.537920986271528E-002  0.101210303403395E+002 -0.739043781061233E+000  0.214692213361673E+001  0.671669720811408E+000  0.585868716252943E+000  0.100153995106469E+000
  0.537920986271528E-002  0.101301516633973E+002  0.119656418893017E+000  0.635287433023661E+000 -0.110178213229164E+001 -0.112064132335086E+001  0.175537068640565E+001
  0.537920986271528E-002  0.101302736920370E+002 -0.156955766884897E+001 -0.165529459807899E+000 -0.139862411785879E+001  0.256374730121085E+000  0.120678423751012E+001
  0.537920986271528E-002  0.120474403461997E+002 -0.114277276490769E+001 -0.540012703551213E+000 -0.931301161596165E-001 -0.198582444651384E+001  0.152858375307149E+001
  0.537920986271528E-002  0.888224309796411E+001  0.146711457782475E+001 -0.501739021105468E+000  0.999791314857636E+000  0.841953149446342E+000 -0.780032881450983E+000
  0.537920986271528E-002  0.120242582254372E+002 -0.493548302424091E+000  0.164965524662320E+001 -0.710655232616518E+000  0.536726511168455E-001 -0.209528934991104E+001
  0.537920986271528E-002  0.120145562246962E+002  0.770301120595784E+000 -0.154347715336392E+001 -0.179788982360196E+001 -0.186529007665558E+000  0.126905988980436E+001
  0.537920986271528E-002  0.880373544185841E+001  0.778669004848066E+000 -0.753524577704956E+000  0.156271092218240E+001  0.894891688984877E+000  0.474928814974723E+000
  0.537920986271528E-002  0.119969896740889E+002  0.356115796861443E+000  0.374063362808915E+000 -0.124503967763619E+001 -0.232004375617764E+001 -0.797724383183308E+000
  0.537920986271528E-002  0.119958910023735E+002  0.124861139843317E+001 -0.129613840146651E+001  0.172926030505708E+001 -0.669147157644812E+000 -0.107593211131727E+001
  0.537920986271528E-002  0.119821228188589E+002 -0.472183968319295E+000 -0.242060942672562E+001  0.161256286790676E+000  0.820057382615215E+000 -0.101988265424544E+001
  0.537920986271528E-002  0.101318324317913E+002 -0.923454988018037E+000 -0.100621544117664E+001 -0.832657501992440E+000  0.182735510102233E+001 -0.269984868188581E+000
  0.537920986271528E-002  0.101346831947990E+002  0.126014807731435E+000 -0.138435264338649E+001 -0.184784772308061E+000 -0.338284964194137E+000  0.197297549396267E+001
  0.537920986271528E-002  0.119663163688371E+002  0.524920970234605E+000 -0.203044010128459E+000 -0.232572629650994E+001  0.143895218484630E+001 -0.938322136477816E-001
  0.537920986271528E-002  0.101518621983763E+002  0.586324254229616E+000 -0.502927893755778E+000  0.119254230729805E+001  0.102780091562763E+001 -0.170747208796330E+001
  0.537920986271528E-002  0.101576955888583E+002  0.247100183592059E+000  0.106372831469228E+001 -0.185774076803075E+001 -0.101186874119691E+001  0.573483441005768E+000
  0.537920986271528E-002  0.101581197636142E+002  0.356517092741591E+000 -0.103054255053638E+001 -0.112199622498713E+001 -0.486845435798626E+000  0.181987542913292E+001
  0.537920986271528E-002  0.112130191696165E+002  0.460346584896387E+000  0.383213105793354E-001 -0.156894867645145E+001  0.175006120054206E+001 -0.114636849251822E+001
  0.537920986271528E-002  0.118959037076767E+002 -0.163822317271985E+001  0.701078247131762E+000  0.125974823028788E+001  0.922333828593969E-001 -0.172162378058788E+001
  0.537920986271528E-002  0.880920661020829E+001 -0.168406677857277E+001 -0.100644397030699E+001  0.298055589368726E+000 -0.218548355024257E-001  0.842451582604897E+000
  0.537920986271528E-002  0.118942078255253E+002  0.108871819793945E+001 -0.226388167884907E+001  0.280467923703343E+000  0.800628314716610E+000  0.838400565179690E+000
  0.537920986271528E-002  0.101585880323132E+002  0.137996988500238E+001 -0.699631831797157E+000  0.659842610163710E+000 -0.102664620996168E+001 -0.145404090217343E+001
  0.537920986271528E-002  0.118819345351252E+002  0.877353639948488E-001 -0.212989796669962E+001 -0.173733129792579E+001  0.387477287590384E+000  0.903117511818232E-001
  0.537920986271528E-002  0.118770914860997E+002  0.512482364424668E+000  0.110330868827212E+001  0.231372522716416E+001  0.256021552305723E+000 -0.903955195598504E+000
  0.537920986271528E-002  0.118691640258445E+002 -0.132471917089274E+001  0.226759323956958E+001  0.663804903600704E+000 -0.233924502342227E-001 -0.608245915953035E+000
  0.537920986271528E-002  0.101657460672086E+002  0.234119066406650E+000 -0.174747240473597E+001  0.615911533996096E+000 -0.158329327998354E+001 -0.997652422592856E-001
  0.537920986271528E-002  0.101706460926671E+002 -0.722281869611893E+000  0.188907232396127E+000  0.176019542165476E+001  0.751087306498087E+000  0.133779377847346E+001
  0.537920986271528E-002  0.118531481981690E+002 -0.588170031023278E+000 -0.106207456071755E+001  0.751596665057590E+000 -0.137277276932554E+001  0.194129915886194E+001
  0.537920986271528E-002  0.112228189405394E+002  0.141278299985455E+001 -0.103364316417184E+001  0.104101112190927E+001 -0.128778540633974E+001  0.112035384739623E+001
  0.537920986271528E-002  0.112296977461596E+002  0.225608214860461E+000  0.538249028943866E+000  0.146008128330568E+001  0.201951105666814E+001 -0.719491214399049E+000
  0.537920986271528E-002  0.118443828804323E+002 -0.223924991228763E+001  0.910655543842685E+000  0.305303898616329E+000 -0.132127358478725E+001 -0.267963043644688E-001
  0.537920986271528E-002  0.101720865100392E+002 -0.126132059658465E+001  0.106581271229743E+001 -0.720153680155556E+000  0.154070859046672E+001 -0.625810712811780E+000
  0.537920986271528E-002  0.101791317747033E+002 -0.187827132110307E+001 -0.116106763648519E+001  0.705100217133753E+000 -0.354839845863691E+000 -0.720358339433101E+000
  0.537920986271528E-002  0.101872161733840E+002 -0.103172858280061E+001  0.159461389883874E+001  0.144419135132084E+001  0.429102888657465E+000  0.385984555696544E+000
  0.537920986271528E-002  0.118143920256412E+002  0.213251181115453E+000 -0.528777937210498E+000 -0.764366660323769E+000 -0.217189685065303E+000  0.258780318202022E+001
  0.537920986271528E-002  0.118044992194464E+002  0.820971268767817E+000 -0.134928528942873E+001  0.208612813168274E+001 -0.892662620956661E+000  0.820644783385838E-003
  0.537920986271528E-002  0.118032347749041E+002 -0.124830685535169E+001  0.202448864685590E+001 -0.762437848219729E+000 -0.370709508716835E+000 -0.112539623393737E+001
  0.537920986271528E-002  0.117994473013495E+002  0.730921496810534E+000  0.145691517050125E+001 -0.136140307128028E+001 -0.472476468283213E+000  0.170434448522419E+001
  0.537920986271528E-002  0.117978746723227E+002 -0.740467983846529E+000  0.144875535790677E+001  0.147564478003076E+001  0.104971891388535E+000 -0.167361475328625E+001
  0.537920986271528E-002  0.117960037344215E+002 -0.136310125542498E+000  0.843229365202250E+000 -0.160413616191296E+001 -0.200952031735754E+001 -0.542038741236139E+000
  0.537920986271528E-002  0.101872770616340E+002 -0.148815750297055E+000  0.164315458714253E+001  0.220896791719619E+000 -0.113741997085089E+001  0.140053474117613E+001
  0.537920986271528E-002  0.101935963459710E+002  0.232856178245154E+001 -0.125832307195169E+000  0.497823263238009E+000 -0.323197746439075E-001  0.587820754620683E+000
  0.537920986271528E-002  0.117911257532594E+002 -0.559135204833519E+000  0.656120375313494E+000  0.132067651786853E+001 -0.165898993196313E+001  0.154609468563315E+001
  0.537920986271528E-002  0.881556994668909E+001  0.770635904465265E+000  0.126666454505532E+001  0.136256319275864E+000  0.135455723834690E+001  0.776339674569753E+000
  0.537920986271528E-002  0.117580224504363E+002  0.492725573465579E+000  0.180468022628529E+001 -0.201308158661855E+001  0.101579538252105E+000 -0.185473908256151E+000
  0.537920986271528E-002  0.117577244690135E+002  0.126097713586954E+001 -0.164191761775909E+001  0.737055245159548E+000 -0.157726858038354E+001  0.528757284877985E+000
  0.537920986271528E-002  0.101951991632271E+002 -0.343461885374317E+000 -0.545337551531561E+000  0.107978282558531E+001  0.149426945686240E+001  0.148993660883429E+001
  0.537920986271528E-002  0.112414875245102E+002 -0.133541029074438E+001  0.585494947160687E+000 -0.140006417504520E+001 -0.329590810986011E-001 -0.173001149086803E+001
  0.537920986271528E-002  0.117355733310267E+002 -0.164955967360854E+000  0.143154582303544E+001 -0.296184412051801E+000 -0.215128650916099E+001 -0.884377619030341E+000
  0.537920986271528E-002  0.887597102766265E+001  0.185226746202135E+001  0.302237964449586E+000 -0.603482745410790E+000  0.222410064106680E+000  0.882561066495835E+000
  0.537920986271528E-002  0.117122537400208E+002 -0.196860018791613E+001  0.678639127112410E+000  0.417013520989681E+000 -0.929486550531660E+000  0.147557231543419E+001
  0.537920986271528E-002  0.102018176131850E+002 -0.436211957560810E+000  0.554148959148693E-001  0.299065272752032E+000  0.148111576055084E+000 -0.239498059727478E+001
  0.537920986271528E-002  0.117044746086469E+002  0.118984863621961E+001  0.162862352819763E+000  0.127673880051290E+001  0.153680921868417E+001  0.145231172730694E+001
  0.537920986271528E-002  0.117024005333967E+002 -0.129078606951239E+001  0.106083678989495E+001  0.173231924016920E+001 -0.130809114054444E+001 -0.194185443834974E+000
  0.537920986271528E-002  0.116948336856763E+002 -0.126816411014121E+001 -0.136307163793473E+001 -0.116502694386912E+001 -0.164466018172180E+001 -0.726463975398906E-001
  0.537920986271528E-002  0.102302612649836E+002 -0.880005339693922E+000 -0.159102321846571E+001 -0.100685901875544E+000 -0.212047234037712E+000 -0.164567266252163E+001
  0.537920986271528E-002  0.102469052094635E+002 -0.890651397461477E+000 -0.183834704929732E+001  0.680898177366617E+000 -0.218807420307936E+000 -0.118383681981681E+001
  0.537920986271528E-002  0.116698196913832E+002 -0.116878948641916E+001 -0.200108914552077E+001 -0.818877592139491E+000  0.105609861115331E+001 -0.593575167256672E+000
  0.537920986271528E-002  0.116687986307007E+002 -0.221875031229049E+001  0.333395001895055E+000 -0.143533219052051E+001  0.642129313174110E+000 -0.335873520072774E-001
  0.537920986271528E-002  0.116598017713368E+002  0.651162099032982E+000  0.148177321346809E+001  0.124948358423474E+001  0.896023719001846E-001  0.181926997191724E+001
  0.537920986271528E-002  0.116595042245810E+002 -0.281277218881615E+000  0.244396049950722E+001 -0.208412161627054E+000  0.235894337900645E+000 -0.116069197760379E+001
  0.537920986271528E-002  0.102537831328787E+002  0.617040094199127E+000  0.106479778281335E+001  0.590028827996367E+000 -0.821922703426046E+000 -0.188531233368505E+001
  0.537920986271528E-002  0.116545186874981E+002 -0.905959612023983E+000  0.162201282945753E+001  0.570467074960248E+000 -0.159642146159210E+001  0.108059210175848E+001
  0.537920986271528E-002  0.102660663124422E+002  0.296626829538931E+000  0.163811237951662E+000  0.107526415713459E+001  0.213951575343779E+001  0.506327221278481E+000
  0.537920986271528E-002  0.102800959600780E+002 -0.286771609721823E+000 -0.170018229561808E+001  0.124233313368827E+001 -0.805000841438399E+000 -0.977068781048681E+000
  0.537920986271528E-002  0.116399062682932E+002  0.685394151045172E+000  0.746867867272448E+000  0.628745464793663E+000 -0.194316785525107E+001  0.150995051201565E+001
  0.537920986271528E-002  0.116318790442564E+002  0.101417851861934E-001 -0.401448127671908E+000  0.152243464178538E+001 -0.136754287220579E+001 -0.176677051438013E+001
  0.537920986271528E-002  0.102803277427879E+002 -0.428403560859147E+000  0.389393491852461E+000  0.121289095486312E+001 -0.546744864586918E+000  0.200349185974559E+001
  0.537920986271528E-002  0.112427803591626E+002 -0.135336399079930E+001 -0.280652139512171E+000 -0.162125012306032E+001 -0.961603410705151E+000  0.127205769139161E+001
  0.537920986271528E-002  0.116240017143056E+002 -0.886607285375301E+000  0.904561422642091E+000  0.136265005502297E+001  0.152303221064059E+001  0.129695751220448E+001
  0.537920986271528E-002  0.112434250866462E+002  0.145671592545202E+001 -0.984196615113888E+000  0.170050986459627E+001  0.103830501265876E+001 -0.147624287132067E+000
  0.537920986271528E-002  0.116133670883721E+002 -0.232479465509901E+001  0.131408145789608E+001  0.625154706941835E-001  0.332372987746388E+000  0.454257682404035E+000
  0.537920986271528E-002  0.882641567209009E+001 -0.101532458773801E+001  0.981474155981247E+000  0.528728446734199E+000  0.135677860587859E+001 -0.742079096918641E+000
  0.537920986271528E-002  0.116036130549255E+002  0.106543083089971E+001  0.909022773216419E-001  0.155986755997370E+001 -0.140458785671087E-001 -0.196612972389471E+001
  0.537920986271528E-002  0.883612727641287E+001 -0.109379549335237E+001 -0.313996381827831E+000  0.152901193105642E+001  0.817866053549683E+000  0.610905727216476E+000
  0.537920986271528E-002  0.115938004257550E+002  0.743099199303607E+000  0.828933098529649E-001  0.611707634539437E+000 -0.155116345095127E+000  0.254466669749404E+001
  0.537920986271528E-002  0.115928572793861E+002 -0.160151037577481E+001  0.124543136122379E+001 -0.338114462997206E+000  0.176634648706146E+001 -0.285419734397445E+000
  0.537920986271528E-002  0.115870001445572E+002 -0.149057619230541E+000  0.333750972329422E+000 -0.515456684374542E-001  0.185849197596491E+001 -0.195846523726842E+001
  0.537920986271528E-002  0.115796564795191E+002 -0.158319550614868E+001 -0.385871063118276E+000 -0.177538030873444E+000  0.977051157031967E+000  0.194343677095179E+001
  0.537920986271528E-002  0.102894345647422E+002 -0.107644303798941E+001 -0.151222126645027E+001  0.939790068210803E+000  0.877353966745568E+000  0.101478058899637E+001
  0.537920986271528E-002  0.115584546850714E+002 -0.101275498003331E+001 -0.180217226647303E+000  0.196761861871200E+001  0.129886268414398E+001 -0.883504212111425E+000
  0.537920986271528E-002  0.102908739104995E+002 -0.142977752542034E+001  0.122679582401878E+001  0.904466103570080E+000  0.121362652366331E+001 -0.538030742708909E+000
  0.537920986271528E-002  0.103057678016989E+002  0.162043587753861E+001  0.119847970293422E+000  0.115992948114223E+001  0.118367471357911E+001 -0.870581880574925E+000
  0.537920986271528E-002  0.103068010507660E+002 -0.228262275874463E+001 -0.475507060248939E-001  0.110076759750966E+000 -0.883149948959145E+000 -0.375427495095324E+000
  0.537920986271528E-002  0.115387611648973E+002 -0.256303241389190E+000 -0.257238942401692E-001  0.178764885389391E+001 -0.200302310702174E+001  0.321654021579628E+000
  0.537920986271528E-002  0.103163547890019E+002  0.149154397295639E+001  0.227337644390478E+000 -0.144233867378021E+001 -0.650175290269297E+000  0.117292088833703E+001
  0.537920986271528E-002  0.115280878754087E+002 -0.135698315652563E+001 -0.154819834830105E+001  0.725850306948732E+000  0.160629518493186E+001  0.146856325955838E+000
  0.537920986271528E-002  0.103533913255088E+002  0.568339623557304E+000  0.160744962690376E+001 -0.139892457822813E+001  0.336482735245572E+000 -0.110232467774028E+001
  0.537920986271528E-002  0.114922394060221E+002 -0.143349212320400E+001  0.111579606058328E+001  0.916224639646485E+000 -0.118831099452765E+001  0.133402829317229E+001
  0.537920986271528E-002  0.114868879857027E+002  0.126920964786465E+001 -0.346799765989443E+000  0.153286700419064E+001 -0.149901975468783E+001 -0.998912662534938E+000
  0.537920986271528E-002  0.114806317260845E+002 -0.119238614707474E+001  0.167925483959524E+001 -0.119923183082205E+001  0.997359189888673E+000 -0.803063543815997E+000
  0.537920986271528E-002  0.114757413579735E+002 -0.715203362073023E+000 -0.142214425188913E+001  0.170577288713956E+001  0.481070888694961E+000  0.128042340664924E+001
  0.537920986271528E-002  0.103598582386056E+002  0.917844936082525E+000 -0.981873916446299E+000  0.354754384962686E-001  0.903995825305206E+000 -0.189042819812965E+001
  0.537920986271528E-002  0.112664719987415E+002  0.193822095588428E+001  0.103230921623513E+001 -0.222577482805493E+000  0.105633573904152E+001 -0.105715017127834E+001
  0.537920986271528E-002  0.112678272159665E+002  0.515682071788133E-001 -0.189343863775906E+001 -0.183888693984313E-001 -0.108953363803857E+001  0.152691832432332E+001
  0.537920986271528E-002  0.114566248912152E+002  0.950223424260651E+000  0.113269183792944E+001 -0.218976843094851E-001  0.224128411122003E+001 -0.292777674657470E+000
  0.537920986271528E-002  0.103631933132852E+002 -0.226525066104090E+000  0.137663933805522E+000 -0.902275423151662E-001 -0.188836823267472E+001 -0.159927982684313E+001
  0.537920986271528E-002  0.114403299715690E+002 -0.252390259280506E+001  0.579279111912570E+000 -0.379800706563081E+000  0.650469767257833E+000  0.785181275515772E-001
  0.537920986271528E-002  0.103642490924572E+002 -0.867697660632569E+000 -0.212016223040545E+001 -0.822939637526756E+000 -0.344620200154856E+000 -0.398889027999564E+000
  0.537920986271528E-002  0.114271048758644E+002 -0.280645241376634E+000  0.933921344373942E-001  0.194138848563917E+001  0.377993396506014E+000  0.180737267343555E+001
  0.537920986271528E-002  0.114255144630413E+002 -0.208726715960914E+000  0.207451816758384E+001  0.550800833464701E+000 -0.118139860500439E+001  0.110366705961177E+001
  0.537920986271528E-002  0.114083271405369E+002  0.170334351879023E+001 -0.644017502562755E+000  0.556969757472380E+000  0.194817820718376E+000  0.189284530984190E+001
  0.537920986271528E-002  0.103774093418630E+002 -0.147205232853222E+001 -0.920123888521386E+000  0.176593661664591E+001 -0.113525944783883E+000 -0.266957387277609E+000
  0.537920986271528E-002  0.103775575197182E+002  0.395382125661720E+000 -0.133242384854391E+001  0.191527125770691E+001  0.197511589277582E+000 -0.759898395072338E+000
  0.537920986271528E-002  0.103778736835275E+002 -0.320583584522598E+000 -0.244426640337702E+001 -0.186260071081520E+000 -0.303162907542998E+000 -0.113596842689567E+000
  0.537920986271528E-002  0.884023417396189E+001  0.468109456511032E+000  0.200079437237441E+001 -0.627434470890265E+000  0.247050865266774E+000 -0.454384412703681E-001
  0.537920986271528E-002  0.113512521656290E+002  0.233389854120913E+000 -0.221292178010190E+000 -0.888830554917023E+000  0.194121971166162E+001  0.159006307936194E+001
  0.537920986271528E-002  0.103835169914740E+002  0.792746401716149E+000  0.104877675474790E+001  0.611070500783820E+000  0.200182822813320E+001  0.336537141984719E+000
  0.537920986271528E-002  0.113412245456193E+002 -0.732609194453138E+000 -0.133065077341855E+001 -0.192265313086906E+001 -0.108042023095345E+001 -0.938994302557381E-001
  0.537920986271528E-002  0.113390235430547E+002 -0.127833137994005E+001 -0.938127811474813E+000 -0.110455230888426E+001  0.179307568902968E+001  0.478012147205136E+000
  0.537920986271528E-002  0.103942636499343E+002  0.821878297380319E+000  0.142277083070377E+001  0.817109489226572E+000  0.318877971513865E+000 -0.166252669347019E+001
  0.537920986271528E-002  0.103962376653070E+002 -0.145711336297871E+001  0.887680425949926E+000 -0.317607585601167E+000  0.156073123838689E+001  0.887225114774685E+000
  0.537920986271528E-002  0.104017822378181E+002  0.770441587415320E+000  0.886046413021045E+000 -0.167069971453985E+001  0.370053528420657E+000  0.139060771218387E+001
  0.537920986271528E-002  0.112810459082209E+002  0.479914251219047E+000  0.201761860424163E-001  0.209801260026984E+001 -0.554898818133391E+000  0.147634507451053E+001
  0.537920986271528E-002  0.113252304167894E+002  0.178017171380119E+001  0.796875237516765E+000  0.507611531923981E+000  0.151866235438292E+000  0.175479894240609E+001
  0.537920986271528E-002  0.112863133847541E+002 -0.344872279316800E+000 -0.240881529383286E-001  0.445326902025314E+000  0.245046335619276E+001 -0.895853087265857E+000
  0.537920986271528E-002  0.113171028153461E+002  0.232235577226531E+000 -0.535211952610879E+000  0.207639617857181E+001  0.842458828642058E+000  0.133955323019580E+001
  0.537920986271528E-002  0.104432204050785E+002  0.186441849363636E+001 -0.623869897080423E+000 -0.845355078513152E+000  0.125582895585947E+001  0.353641158680262E+000
  0.537920986271528E-002  0.112876506587045E+002  0.243543182759365E+001  0.241684651263738E+000  0.169882389782209E+000  0.413851328032004E-001  0.105175161168898E+001
  0.537920986271528E-002  0.104659571470280E+002 -0.962282394911554E+000 -0.762157150365852E+000  0.200500612966203E+001  0.862209632021538E+000 -0.185672817499674E+000
  0.537920986271528E-002  0.112888147434330E+002  0.113750146490617E+001  0.129760158340408E+001  0.144158100991908E+001  0.143809062997639E+001  0.609756541999324E-001
  0.537920986271528E-002  0.108560737378976E+002 -0.107341185273142E+001 -0.419353523326049E+000 -0.151691676711840E+001 -0.269320379091157E+000 -0.173010884539163E+001
  0.537920986271528E-002  0.108477868798590E+002 -0.413911895063817E-001 -0.120769078672957E+000  0.192462869636893E+001 -0.102490756845841E+001 -0.138408834372320E+001
  0.537920986271528E-002  0.108433030898291E+002 -0.142691062116256E+001 -0.575588408841169E+000 -0.614063176300602E+000  0.178607032079101E+001  0.864667325868798E+000
  0.537920986271528E-002  0.108394052331545E+002  0.176936364868711E+001 -0.136612728614574E+001 -0.733800804686966E+000 -0.782699625431854E+000  0.728158384124317E+000
  0.537920986271528E-002  0.887469812767633E+001  0.168989887240487E+001  0.317220404202260E+000  0.301978107256534E+000  0.109844247423915E+001  0.677781457755910E+000
  0.537920986271528E-002  0.108281616224445E+002  0.682580263320913E-001 -0.522659026286725E-001 -0.228422272037611E+001 -0.741448378433831E+000 -0.944560645282922E+000
  0.537920986271528E-002  0.108250295145967E+002  0.413932277485626E+000 -0.243614707007855E+000  0.333492416974090E+000 -0.167487334307962E+001  0.187530444416834E+001
  0.537920986271528E-002  0.104895214451967E+002 -0.533225839269474E+000  0.340940686085220E+000  0.808693438761631E+000  0.190719092120250E+001 -0.127923102579799E+001
  0.537920986271528E-002  0.104919806392157E+002 -0.139163002209431E+000  0.204196410170402E+001 -0.100494320184790E+001 -0.100876605908039E+001 -0.338112868085124E+000
  0.537920986271528E-002  0.108136930353998E+002  0.232006859092157E+001 -0.444584285106579E+000 -0.828890222657853E+000 -0.412983951711272E+000 -0.463193311415624E+000
  0.537920986271528E-002  0.105048870107591E+002 -0.315379885721280E+000  0.101499918286293E+001  0.972292356743883E+000  0.749399114946248E+000  0.192538072698313E+001
  0.537920986271528E-002  0.884903945912890E+001 -0.678012554116356E+000  0.108117796492000E+001 -0.489533218088155E+000 -0.152618543519207E+001  0.700250738400578E+000
  0.537920986271528E-002  0.107990967071502E+002 -0.115310818027529E+001  0.241966868866200E+000 -0.148427484021104E+001  0.136411881768837E+001  0.108896350862746E+001
  0.537920986271528E-002  0.107941359317633E+002  0.187009249650318E+001 -0.138751914336917E+001 -0.248679309220453E+000  0.103492382757974E+001 -0.278594853536459E+000
  0.537920986271528E-002  0.886687114835826E+001 -0.116443743964413E+001 -0.959241120688962E+000  0.151051531847575E+001 -0.242923467601893E+000 -0.298308462006728E+000
  0.537920986271528E-002  0.884937680691587E+001 -0.562816074964964E+000 -0.854363185154694E+000  0.980919660721852E+000  0.150942497647087E+001  0.633209670818610E+000
  0.537920986271528E-002  0.105230842410021E+002  0.126126487117659E-001  0.496743583686792E+000 -0.175175270987888E+001  0.161919853338435E+001 -0.651592460171497E+000
  0.537920986271528E-002  0.105278394307918E+002  0.917542063456729E-001 -0.106100912469681E+001 -0.714798610515179E+000 -0.108564194383377E+001 -0.188227733264467E+001
  0.537920986271528E-002  0.105313751181323E+002 -0.460150567305790E+000 -0.108722933639190E+001 -0.830431498152731E+000 -0.206018052304717E+001 -0.206038564438603E+000
  0.537920986271528E-002  0.105468778272733E+002 -0.297179550136538E+000 -0.180442782049731E+001 -0.893324269186542E+000 -0.147030196468476E+001 -0.285708719974588E+000
  0.537920986271528E-002  0.885572267886936E+001  0.454088858146040E-002  0.250037435744959E+000 -0.136682545145870E+001  0.131991135462506E+001  0.101076641622912E+001
  0.537920986271528E-002  0.107371352946042E+002  0.206145752769154E+000 -0.218997417481951E+000  0.226249993994241E-001 -0.193317416373440E+001 -0.165766351335288E+001
  0.537920986271528E-002  0.107134522765662E+002 -0.103668198145856E+001  0.115799618991600E+001 -0.848806572188576E+000  0.795690267859710E-001 -0.184657167477599E+001
  0.537920986271528E-002  0.107099953509259E+002 -0.194348360839060E+001 -0.531520278022020E+000 -0.698369384334262E+000  0.140527316821113E+001  0.163351589213305E+000
  0.537920986271528E-002  0.107085088640495E+002 -0.334112389995235E+000  0.160699871154033E+001  0.762988535840255E+000  0.144426042904646E+001  0.108868564349380E+001
  0.537920986271528E-002  0.107071504070809E+002  0.323625575141530E+000  0.184367372937020E+001 -0.169652303602998E+001  0.286062085011805E+000  0.286540315902412E+000
  0.537920986271528E-002  0.105661542274894E+002 -0.138930218163021E+001  0.185588898693418E+001 -0.126986080060141E+000 -0.522286481348619E+000 -0.861164512580811E+000
  0.537920986271528E-002  0.105772834264998E+002 -0.107712485835474E+001 -0.197147438871417E+001 -0.659125560290796E-003  0.486016747009551E+000 -0.106442693263169E+001
  0.537920986271528E-002  0.105945358377127E+002 -0.292527274392253E+000  0.626351607041475E+000  0.193583392829454E+001 -0.431989571257506E+000 -0.142176739140697E+001
  0.537920986271528E-002  0.885009268375730E+001 -0.593531939550796E+000 -0.142113950378050E+001  0.137690928735710E+001 -0.534448034766450E+000 -0.368109156205985E+000
  0.537920986271528E-002  0.106047236290936E+002 -0.128393610290353E+001 -0.171485790510949E+001  0.914533733299592E+000  0.527290448621161E+000 -0.860191907984365E+000
  0.537920986271528E-002  0.885076509223901E+001  0.975848407681654E+000  0.114661386376043E+001 -0.800858671529930E+000 -0.534812368339729E+000 -0.122278614273980E+001
  0.537920986271528E-002  0.106120036897031E+002 -0.302059167589593E+000 -0.756403056858495E+000 -0.188021579032844E+001  0.120874490698308E+001 -0.889486314267462E+000
  0.537920986271528E-002  0.106785709241382E+002 -0.111316404548467E+001  0.826643572045582E+000 -0.211828130421853E+001 -0.179193262972833E+000  0.275162560228084E+000
  0.537920986271528E-002  0.106772528215585E+002 -0.399669765848869E+000  0.136878220481816E+001 -0.122615234726000E+001 -0.140018424456181E+001  0.100937103448700E+001
  0.537920986271528E-002  0.106634928352487E+002  0.108477385377203E+001  0.921417282521676E+000 -0.116225173534909E+001  0.259219269220111E+000 -0.174887626609444E+001
  0.537920986271528E-002  0.106618850772169E+002 -0.961821555930841E+000 -0.699573108839224E+000  0.199578403742326E+001 -0.859046888107017E+000 -0.604242967875241E+000
  0.537920986271528E-002  0.885415581967381E+001 -0.123838846246454E+000 -0.185357843783543E+001 -0.866651849791276E-001 -0.818162722204663E+000  0.751670704102976E+000
  0.537920986271528E-002  0.106536069860930E+002 -0.567672375718244E+000  0.220504351293986E+001  0.529767695135867E+000 -0.857079108979155E-001  0.100994144199303E+001
  0.537920986271528E-002  0.106492494860706E+002  0.149773230203208E+001 -0.322093324936663E+000 -0.165860612636819E+001  0.798004815421237E+000 -0.867963459348198E+000
  0.537920986271528E-002  0.116934542391075E+002 -0.100181095516291E+000  0.296661229725536E+000 -0.146584844436141E+001  0.182330418949022E+000 -0.473358982621857E+000
